tree
version=v4
num_class=1
num_tree_per_iteration=1
label_index=0
max_feature_idx=12
objective=regression
feature_names=Podcast_Name Episode_Title Episode_Length_minutes Genre Host_Popularity_percentage Publication_Day Publication_Time Guest_Popularity_percentage Number_of_Ads Episode_Sentiment Ad_Density Host_Guest_Popularity_Diff Has_Guest
feature_infos=[0:47] [0:99] [1.24:119.98999999999999] [0:9] [1.8899999999999999:119.45999999999999] [0:6] [0:3] [0.01:114.88] [0:103.25] [0:2] [0:0.91965796731810301] [-79.460000000000008:99.609999999999999] none
tree_sizes=2899 2986 2990 2994 2984 2993 3007 2997 2988 3058 2988 3064 3016 3005 3005 3002 3003 3003 3020 2996 2992 3017 2994 3001 3025 3020 3008 3017 3035 3031 3007 3003 3020 3008 2991 2993 3013 3017 3015 2998 2984 2990 3003 2996 3002 2968 3040 3047 2983 2987 3014 3012 2999 2996 2982 2995 3005 2996 3009 2996 2974 2986 2981 2975 3003 3006 2922 2938 2977 3000 2989 2944 2996 2946 2967 2953 2942 2991 2984 2960 2998 2974 3011 2994 2998 2932 2981 2948 2968 2982 3020 2995 2973 2922 2986 2953 2904 2922 2914 2930 2945 2983 2952 2873 3018 2919 2928 2986 2989 2964 2803 2863 3018 2952 2875 2910 2949 2890 2888 2846 2947 2951 2907 2807 2907 2822 2861 2845 2837 2808 2828 2825 2838 2866 2795 2919 2845 2835 2837 2814 2816 2872 2843 2895 2919 2884 2867 2914 2869 2932 2897 2880 2919 2884 2850 2838 2903 2877 2888 2896 2811 2807 2794 2909 2932 2990 2814 2940 2834 2826 2826 2838 2922 2960 2783 2798 2737 2749 2958 2797 2894 2871 2885 2873 2834 2862 2835 2770 2825 2775 2908 2783 2908 2782 2840 2804 2825 2810 2883 2776 2900 2782 2861 2791 2839 2980 2823 2787 2832 2846 2850 2836 2855 2839 2797 2938 2868 2932 2879 2830 2877 2912 2844 2808 2801 2824 2781 2818 2728 2868 2889 2832 2789 2901 2794 2797 2835 2854 2823 2799 2780 2882 2861 2782 2868 2780 2850 2885 2778 2807 2815 2832 2805 2756 2796 2879 2820 2786 2832 2852 2765 2776 2769 2780 2786 2809 2820 2802 2826 2816 2796 2871 2833 2917 2866 2829 2831 2789 2826 2859 2770 2777 2853 2747 2849 2749 2824 2800 2788 2770 2821 2896 2822 2850 2826 2874 2784 2846 2855 2810 2801 2795 2893 2778 2878 2806 2852 2767 2841 2801 2752 2810 2748 2892 2797 2848 2841 2839 2869 2860 2759 2797 2736 2752 2770 2816 2770 2781 2833 2824 2775 2771 2818 2862 2786 2811 2785 2792 2845 2855 2809 2798 2772 2769 2770 2822 2800 2837 2889 2823 2765 2790 2777 2864 2784 2791 2835 2886 2749 2776 2789 2814 2832 2874 2855 2808 2830 2770 2894 2737 2720 2732 2903 2735 2862 2805 2863 2771 2852 2853 2885 2821 2805 2817 2812 2753 2809 2741 2744 2768 2789 2822 2883 2790 2795 2824 2808 2912 2773 2778 2762 2796 2769 2760 2840 2811 2792 2797 2795 2811 2910 2909 2925 2929 2927 2825 2823 2759 2740 2798 2803 2830 2840 2969 2914 2862 2821 2875 2900 2820 2788 2925 2868 2865 2873 2854 2895 2815 2784 2832 2829 2816 2828 2823 2828 2799 2788 2802 2798 2816 2818 2868 2743 2870 2769 2814 2774 2744 2800 2877 2817 2818 2815 2811 2759 2822 2766 2832 2760 2824 2808 2786 2807 2796 2823 2736 2759 2794 2744 2756 2865 2869 2827 2799 2804 2728 2847 2853 2786 2821 2875 2777 2857 2857 2839 2769 2760 2765 2734 2762 2781 2822 2743 2807 2908 2815 2765 2839 2786 2798 2779 2765 2811 2797 2796 2804 2818 2781 2881 2800 2851 2817 2808 2830 2743 2790 2800 2810 2807 2793 2748 2747 2793 2810 2808 2792 2775 2759 2809 2801 2815 2857 2764 2813 2807 2827 2838 2830 2770 2853 2774 2786 2809 2829 2785 2903 2924 2746 2829 2835 2854 2859 2810 2883 2770 2904 2869 2864 2760 2796 2733 2842 2794 2737 2808 2787 2764 2779 2759 2759 2728 2773 2753 2791 2799 2756 2818 2771 2808 2780 2769 2803 2874 2799 2813 2847 2809 2884 2847 2779 2851 2749 2774 2764 2834 2837 2814 2855 2815 2800 2786 2796 2809 2801 2766 2819 2740 2737 2762 2757 2869 2783 2729 2805 2789 2790 2838 2845 2775 2811 2899 2870 2885 2842 2871 2784 2773 2847 2851 2827 2740 2771 2794 2782 2755 2864 2881 2761 2845 2919 2859 2827 2777 2776 2874 2815 2727 2814 2793 2721 2787 2820 2810 2831 2806 2789 2854 2764 2816 2875 2772 2779 2765 2741 2713 2824 2771 2869 2921 2829 2772 2813 2832 2791 2824 2785 2770 2765 2734 2759 2861 2804 2777 2857 2734 2812 2788 2830 2842 2860 2766 2861 2797 2798 2838 2813 2744 2753 2795 2818 2822 2875 2780 2846 2841 2776 2853 2850 2858 2754 2802 2783 2738 2756 2764 2727 2804 2767 2812 2807 2803 2804 2746 2805 2852 2809 2823 2845 2855 2775 2769 2797 2769 2793 2714 2798 2822 2813 2802 2784 2782 2878 2822 2794 2796 2825 2830 2754 2753 2843 2732 2823 2882 2789 2737 2816 2744 2762 2801 2799 2816 2796 2825 2774 2787 2716 2852 2848 2756 2828 2777 2815 2770 2780 2809 2750 2777 2795 2813 2763 2744 2759 2805 2763 2815 2780 2753 2748 2830 2782 2796 2816 2793 2847 2773 2813 2891 2792 2926 2899 2841 2860 2740 2796 2744 2711 2764 2823 2774 2738 2840 2834 2792 2800 2791 2751 2725 2822 2743 2808 2700 2721 2728 2713 2714 2731 2703 2806 2740 2834 2755 2745 2759 2813 2796 2712 2765 2854 2786 2735 2769 2835 2853 2791 2808 2789 2763 2824 2809 2747 2790 2750 2824 2752 2747 2764 2785 2763 2733 2782 2765 2762 2760 2766 2773 2846 2854 2819 2842 2771 2769 2838 2736 2791 2824 2732 2731 2749 2787 2789 2760 2789 2802 2903 2767 2790 2746 2787 2827 2812 2806 2830 2826 2797 2787 2755 2767 2766 2754 2761 2834 2810 2831 2804 2834 2801 2789 2796 2817 2780 2810 2876 2787 2864 2722 2889 2898 2850 2755 2793 2718 2796 2773 2791 2783 2738 2787 2771 2761 2787 2931 2814 2835 2853 2732 2772 2737 2715 2742 2759 2876 2782 2772 2765 2810 2808 2817 2806 2824 2804 2765 2801 2714 2795 2861 2769 2772 2768 2773 2814 2842 2839 2838 2797 2765 2768 2799 2825 2813 2824 2789 2868 2764 2837 2741 2772 2790 2827 2806 2747 2747 2822 2757 2757 2786 2761 2775 2781 2804 2777

Tree=0
num_leaves=31
num_cat=0
split_feature=2 2 2 2 2 2 2 8 2 8 8 2 2 2 2 8 4 2 2 2 2 2 8 8 4 2 2 2 8 8
split_gain=1.84518e+08 4.46558e+07 1.80184e+07 4.87579e+06 4.50272e+06 3.31454e+06 1.54129e+06 852973 652343 523149 483510 474962 399605 396982 322996 268642 261980 236989 208387 196458 160677 160613 127571 112995 112667 107488 96420.2 93551.3 91311.7 90302
threshold=70.02500000000002 39.895000000000003 93.085000000000022 22.545000000000005 55.295000000000009 111.24500000000002 82.985000000000014 1.5000000000000002 33.995000000000012 1.5000000000000002 1.5000000000000002 14.375000000000002 46.175000000000004 101.63500000000001 116.13500000000001 1.5000000000000002 81.045000000000016 76.115000000000023 64.195000000000007 63.845000000000006 102.90500000000002 28.205000000000002 2.5000000000000004 1.5000000000000002 81.045000000000016 85.965000000000018 51.955000000000005 63.345000000000006 1.5000000000000002 1.0000000180025095e-35
decision_type=2 2 2 2 2 2 2 2 2 2 2 2 2 2 2 2 2 2 2 2 2 2 2 2 2 2 2 2 2 2
left_child=1 3 6 11 12 7 17 13 21 14 16 -1 -3 -4 -7 25 19 28 -12 29 -9 -5 -11 -19 -15 -8 -14 -18 -2 -6
right_child=2 4 5 8 10 9 15 20 -10 22 18 -13 26 24 -16 -17 27 23 -20 -21 -22 -23 -24 -25 -26 -27 -28 -29 -30 -31
leaf_value=43.408962899021503 45.865181524226642 44.671478062249896 46.856912598719397 43.986377540373724 45.426850256917831 47.423260941811996 46.272869794840105 46.5443512535251 44.413825728664229 47.344254474568167 45.196753874482447 43.714236793436996 44.870008935185133 47.094108501668906 47.780055160578698 46.168823130056481 45.441928574167072 46.098438536439147 45.456398386827175 45.599049552114494 46.787605207058945 44.172167123571015 47.043136417231757 45.877211664725273 47.348617795634638 46.522165142541063 45.041847414073416 45.722352146525772 45.651247336053984 45.274865520668335
leaf_weight=25809 10815 23788 20421 20253 20598 14276 6069 14592 23774 7496 37331 25165 20457 16103 11415 14136 4105 13062 9745 10415 12694 27330 6627 10342 5957 15037 13584 10796 9257 18597
leaf_count=25809 10815 23788 20421 20253 20598 14276 6069 14592 23774 7496 37331 25165 20457 16103 11415 14136 4105 13062 9745 10415 12694 27330 6627 10342 5957 15037 13584 10796 9257 18597
internal_value=45.4487 44.6611 46.6688 43.9332 45.1868 47.0834 46.0918 46.8757 44.1999 47.4474 45.3723 43.5597 44.8287 47.0158 47.5818 46.3375 45.4612 45.8926 45.2505 45.406 46.6575 44.0931 47.203 46.0007 47.1628 46.4505 44.9386 45.6451 45.7665 45.3547
internal_weight=480046 291747 188299 122331 169416 109581 78718 69767 71357 39814 111587 50974 57829 42481 25691 35242 64511 43476 47076 49610 27286 47583 14123 23404 22060 21106 34041 14901 20072 39195
internal_count=480046 291747 188299 122331 169416 109581 78718 69767 71357 39814 111587 50974 57829 42481 25691 35242 64511 43476 47076 49610 27286 47583 14123 23404 22060 21106 34041 14901 20072 39195
is_linear=0
shrinkage=1


Tree=1
num_leaves=31
num_cat=0
split_feature=2 2 2 2 2 2 2 10 10 2 10 2 2 10 10 2 2 10 4 4 4 4 2 2 2 2 10 2 10 2
split_gain=1.66528e+08 4.03019e+07 1.62721e+07 4.4004e+06 4.06897e+06 2.68885e+06 1.72645e+06 930215 609709 593718 591695 433424 388227 356480 258571 239310 210678 192167 154563 142654 124647 122341 118000 115376 104568 93768.1 92133.5 87307.8 85775.3 83199.8
threshold=70.02500000000002 39.895000000000003 94.405000000000015 22.545000000000005 55.835000000000008 111.24500000000002 82.985000000000014 0.019301293183849457 0.017263703190701789 32.025000000000013 0.015662933761086354 12.565000000000003 46.715000000000011 0.022156982283324449 0.02538071065506713 117.74500000000002 101.63500000000001 0.0469924811938063 81.045000000000016 80.725000000000009 75.625000000000014 80.725000000000009 85.965000000000018 36.045000000000009 76.115000000000023 18.695000000000004 0.037907505680138447 27.335000000000004 0.0095693780771445563 64.195000000000007
decision_type=2 2 2 2 2 2 2 2 2 2 2 2 2 2 2 2 2 2 2 2 2 2 2 2 2 2 2 2 2 2
left_child=1 3 6 11 12 7 14 16 15 27 21 -1 -3 22 24 20 -4 18 29 28 -7 -6 -8 -11 -2 -13 -14 -5 -18 -12
right_child=2 4 5 9 10 8 13 -9 -10 23 17 25 26 -15 -16 -17 19 -19 -20 -21 -22 -23 -24 -25 -26 -27 -28 -29 -30 -31
leaf_value=-1.9692349012067318 0.39650487389842415 -0.72901385829001586 1.3668035079373768 -1.4017147334028195 0.03813668833539393 1.8434108432181895 0.78380873525881256 1.0936656433776772 1.5768265634317076 -1.1161089985554531 -0.1877829118665324 -1.7432098465013568 -0.40916642303509082 0.65966380934426749 0.26530291526764016 2.2534639792234268 1.5920205602535855 -0.29684235436181544 0.052778334952266498 1.7801437983454891 2.0986773811525494 0.24595926536900614 1.0335891446465051 -0.92661858578799527 0.5969509486848158 -1.5625168411082666 -0.58078698931684947 -1.2510054164850541 1.3709061661022743 -0.0059309817797037513
leaf_weight=20814 10815 25444 17186 16968 30499 13957 6069 19975 10698 16997 32887 18376 21793 12886 16329 7884 13802 17831 11765 7258 7275 9223 21404 15232 16332 11784 12197 22160 6429 7777
leaf_count=20814 10815 25444 17186 16968 30499 13957 6069 19975 10698 16997 32887 18376 21793 12886 16329 7884 13802 17831 11765 7258 7275 9223 21404 15232 16332 11784 12197 22160 6429 7777
internal_value=0.000807038 -0.747349 1.15999 -1.43892 -0.247982 1.57637 0.641141 1.3773 1.89962 -1.18547 -0.0678492 -1.79373 -0.581315 0.87664 0.422526 2.01823 1.50413 -0.15505 -0.106826 1.58998 1.93088 0.0863907 0.978411 -1.02655 0.517096 -1.67261 -0.470751 -1.31636 1.52175 -0.153004
internal_weight=480046 291747 188299 122331 169416 104464 83835 64650 39814 71357 109982 50974 59434 40359 43476 29116 44675 70260 52429 27489 21232 39722 27473 32229 27147 30160 33990 39128 20231 40664
internal_count=480046 291747 188299 122331 169416 104464 83835 64650 39814 71357 109982 50974 59434 40359 43476 29116 44675 70260 52429 27489 21232 39722 27473 32229 27147 30160 33990 39128 20231 40664
is_linear=0
shrinkage=0.05


Tree=2
num_leaves=31
num_cat=0
split_feature=2 2 2 2 2 2 2 10 10 10 2 2 2 10 2 2 10 10 4 4 4 2 2 10 4 2 2 2 10 4
split_gain=1.50291e+08 3.63725e+07 1.46988e+07 3.97136e+06 3.67561e+06 2.70116e+06 1.25473e+06 862821 555864 542945 535831 391588 298789 275423 252441 251002 218002 181115 136411 131906 109031 104127 94937.9 94262.9 81617.3 80694.5 79845.2 79664.2 75070.7 70887.5
threshold=70.02500000000002 39.895000000000003 93.085000000000022 22.545000000000005 54.775000000000013 110.88500000000001 82.555000000000021 0.019485580667456318 0.017263703190701789 0.015662933761086354 32.025000000000013 11.875000000000002 46.175000000000004 0.011617775233902295 99.205000000000013 116.13500000000001 0.013505300890333931 0.0469924811938063 81.045000000000016 81.045000000000016 81.045000000000016 36.045000000000009 18.695000000000004 0.0095693780771445563 78.225000000000009 64.195000000000007 28.205000000000002 64.195000000000007 0.038261645921265533 75.625000000000014
decision_type=2 2 2 2 2 2 2 2 2 2 2 2 2 2 2 2 2 2 2 2 2 2 2 2 2 2 2 2 2 2
left_child=1 3 6 11 12 7 16 14 15 20 26 -1 -3 -8 -4 29 -2 18 27 23 25 -12 -13 -16 -17 -6 -5 -11 -14 -7
right_child=2 4 5 10 9 8 13 -9 -10 17 21 22 28 -15 19 24 -18 -19 -20 -21 -22 -23 -24 -25 -26 -27 -28 -29 -30 -31
leaf_value=-1.8837137115557163 0.51584351448116494 -0.70106273247097228 1.2345320982015937 -1.3194954456720556 -0.023404695478577972 1.691011168991128 0.9290984603323178 1.0146064306815672 1.494705030165437 -0.18295149519715004 -1.0603035530904017 -1.6630106581618727 -0.41040879248947509 0.65607814021257094 1.496500277707663 1.9704005254901209 0.28678231597544163 -0.28828196620214169 0.040308423229084185 1.6506688768969804 0.22510158800074814 -0.88028765635784068 -1.4843909839910467 1.2889638162428239 2.219499136267153 0.15027566169834009 -1.1765566170749284 -0.0056344388551249989 -0.56918175363486501 1.9174956069212283
leaf_weight=19014 19371 23788 15397 20253 21736 10342 18532 20813 11235 34147 16997 20176 20679 18418 14877 9658 22397 18581 12134 8431 9281 15232 11784 8654 4986 9660 18875 7777 11633 5188
leaf_count=19014 19371 23788 15397 20253 21736 10342 18532 20813 11235 34147 16997 20176 20679 18418 14877 9658 22397 18581 12134 8431 9281 15232 11784 8654 4986 9660 18875 7777 11633 5188
internal_value=0.000766679 -0.709982 1.10199 -1.36698 -0.235582 1.47641 0.580771 1.28293 1.79492 -0.0717147 -1.12619 -1.70404 -0.566578 0.793009 1.40085 1.90671 0.393015 -0.153616 -0.107328 1.48097 0.074541 -0.975225 -1.59715 1.42017 2.05521 0.0300337 -1.25054 -0.150059 -0.46757 1.76667
internal_weight=480046 291747 188299 122331 169416 109581 78718 68172 41409 113316 71357 50974 56100 36950 47359 30174 41768 72639 54058 31962 40677 32229 31960 23531 14644 31396 39128 41924 32312 15530
internal_count=480046 291747 188299 122331 169416 109581 78718 68172 41409 113316 71357 50974 56100 36950 47359 30174 41768 72639 54058 31962 40677 32229 31960 23531 14644 31396 39128 41924 32312 15530
is_linear=0
shrinkage=0.05


Tree=3
num_leaves=31
num_cat=0
split_feature=2 2 2 2 2 2 2 10 2 10 10 2 2 2 10 2 2 10 2 10 4 10 4 4 4 2 10 10 2 2
split_gain=1.35638e+08 3.28549e+07 1.32774e+07 4.22145e+06 2.55249e+06 2.11392e+06 1.51983e+06 754986 718733 480983 475669 395634 324182 221255 219231 187345 181011 152166 135666 130861 129042 103671 99375.5 98536.5 96088.1 66354.9 66249.5 65799.6 64859.4 63917.2
threshold=70.02500000000002 42.195000000000007 94.835000000000022 23.135000000000002 56.405000000000008 111.59500000000001 85.965000000000018 0.01911314984435496 35.125000000000007 0.017263703190701789 0.015662933761086354 14.375000000000002 78.655000000000015 51.955000000000005 0.021929824557796632 117.74500000000002 104.12500000000001 0.0469924811938063 28.645000000000003 0.013776951224183237 80.435000000000016 0.01250547119095374 80.725000000000009 75.625000000000014 81.045000000000016 8.7850000000000019 0.022390148401126447 0.028359408291675752 64.195000000000007 19.140805500000003
decision_type=2 2 2 2 2 2 2 2 2 2 2 2 2 2 2 2 2 2 2 2 2 2 2 2 2 2 2 2 2 2
left_child=1 3 6 11 13 7 12 16 18 15 22 25 19 26 -8 23 -4 20 -5 -2 28 -14 -6 -7 -18 -1 -3 -9 -12 -13
right_child=2 4 5 8 10 9 14 27 -10 -11 17 29 21 -15 -16 -17 24 -19 -20 -21 -22 -23 -24 -25 -26 -27 -28 -29 -30 -31
leaf_value=-1.8454804328364647 0.42536537959771448 -0.48193426718289417 1.2698419888378147 -1.2410062053967568 0.037554284420366291 1.6705121174214232 0.94766460309129885 1.0747783380675433 -0.82158866385781426 1.4288033011867585 -0.1684224113800093 -1.5433756292107714 0.64709207329454255 -0.33238698265221767 0.66191887337463129 2.037901061932744 1.4103810233076233 -0.26448833274896383 -1.0743829189754306 0.20933934908134361 0.050364548077932829 0.44494985077946558 0.22586476806446068 1.9028493135264299 1.647494827445791 -1.6824871842862117 -0.6178277360591945 0.89007385692153407 -0.0068589997249255148 -1.3878644756868994
leaf_weight=10587 12906 17437 22077 20266 30148 13250 22119 12392 27008 10096 31919 15061 13753 16890 9637 7884 16440 17407 30756 15346 11967 11772 9127 6961 5773 15222 18467 7893 7713 11772
leaf_count=10587 12906 17437 22077 20266 30148 13250 22119 12392 27008 10096 31919 15061 13753 16890 9637 7884 16440 17407 30756 15346 11967 11772 9127 6961 5773 15222 18467 7893 7713 11772
internal_value=0.000728344 -0.674483 1.04689 -1.26358 -0.196575 1.42993 0.586674 1.25553 -1.03016 1.72481 -0.0575942 -1.60958 0.424711 -0.481625 0.860949 1.83117 1.37123 -0.136655 -1.14057 0.308024 -0.0935302 0.553865 0.0813152 1.75053 1.47201 -1.74935 -0.55183 1.00291 -0.13698 -1.47515
internal_weight=480046 291747 188299 130672 161075 102766 85533 64575 78030 38191 108281 52642 53777 52794 31756 28095 44290 69006 51022 28252 51599 25525 39275 20211 22213 25809 35904 20285 39632 26833
internal_count=480046 291747 188299 130672 161075 102766 85533 64575 78030 38191 108281 52642 53777 52794 31756 28095 44290 69006 51022 28252 51599 25525 39275 20211 22213 25809 35904 20285 39632 26833
is_linear=0
shrinkage=0.05


Tree=4
num_leaves=31
num_cat=0
split_feature=2 2 2 2 2 2 2 10 10 10 2 2 2 10 2 2 10 10 10 4 4 4 10 4 2 2 2 2 2 2
split_gain=1.22413e+08 2.9658e+07 1.19942e+07 3.13804e+06 3.11083e+06 2.27257e+06 951867 719631 476429 435435 396266 322000 315845 250518 231640 154136 141389 139989 126106 114684 114245 90334.4 82959.2 79170.1 78812.2 73773.2 69310.2 68305.1 64862.5 64697
threshold=70.02500000000002 39.565000000000005 92.695000000000007 55.835000000000008 22.545000000000005 110.88500000000001 80.725000000000009 0.019485580667456318 0.0087286693302269912 0.015662933761086354 32.025000000000013 12.565000000000003 46.175000000000004 0.011752952968628645 98.625000000000014 116.13500000000001 0.0469924811938063 0.026769580843316005 0.025709694706422589 81.045000000000016 81.045000000000016 80.725000000000009 0.0095693780771445563 81.045000000000016 51.955000000000005 85.965000000000018 36.995000000000012 17.000003100550003 27.335000000000004 64.195000000000007
decision_type=2 2 2 2 2 2 2 2 2 2 2 2 2 2 2 2 2 2 2 2 2 2 2 2 2 2 2 2 2 2
left_child=1 4 6 12 11 7 17 14 15 21 28 -1 -3 25 -4 -7 20 -2 23 22 -11 29 -16 -10 -14 -8 -12 -13 -6 -5
right_child=2 3 5 9 10 8 13 -9 18 16 26 27 24 -15 19 -17 -18 -19 -20 -21 -22 -23 -24 -25 -26 -27 -28 -29 -30 -31
leaf_value=-1.6892721271634021 0.39347285159214862 -0.63907007256860038 1.0992920099512129 -0.016382706169635903 -1.2028820648866687 1.6391725191992965 0.66348439327466213 0.91108710070683996 1.4512158602723908 -0.13099235223652042 -0.94207981708822686 -1.5182369527913466 -0.47263567469899775 0.55516068654856954 1.3490843678890352 1.9120945935561906 -0.25428098944626326 0.18168114693920495 1.2215493375871374 1.4892668977257271 0.045926231061078925 0.21157995437117655 1.1577088084789975 1.7076204697428921 -0.32229148406335484 0.86457259916914408 -0.78210662478444926 -1.3667043302405233 -1.0729816958318981 0.14039023045211582
leaf_weight=20814 23121 25490 15412 20892 16968 9461 6773 21383 11798 40664 20390 13315 20457 21441 15269 11415 17831 11776 4693 8748 11765 9223 9001 4042 15189 13966 10137 16845 22160 9607
leaf_count=20814 23121 25490 15412 20892 16968 9461 6773 21383 11798 40664 20390 13315 20457 21441 15269 11415 17831 11776 4693 8748 11765 9223 9001 4042 15189 13966 10137 16845 22160 9607
internal_value=0.000691932 -0.640759 0.994544 -0.21749 -1.24119 1.32674 0.51518 1.15268 1.62021 -0.057851 -1.02398 -1.538 -0.504676 0.675002 1.25935 1.78841 -0.132656 0.322004 1.4492 1.33405 -0.0912921 0.0744641 1.27811 1.51664 -0.408573 0.798901 -0.888958 -1.4336 -1.12931 0.0329998
internal_weight=480046 291747 188299 171118 120629 111222 77077 69813 41409 109982 69655 50974 61136 42180 48430 20876 70260 34897 20533 33018 52429 39722 24270 15840 35646 20739 30527 30160 39128 30499
internal_count=480046 291747 188299 171118 120629 111222 77077 69813 41409 109982 69655 50974 61136 42180 48430 20876 70260 34897 20533 33018 52429 39722 24270 15840 35646 20739 30527 30160 39128 30499
is_linear=0
shrinkage=0.05


Tree=5
num_leaves=31
num_cat=0
split_feature=2 2 2 2 2 2 2 2 10 10 10 2 10 2 10 4 2 2 10 2 2 2 4 2 4 10 2 2 10 10
split_gain=1.10442e+08 2.87417e+07 9.00244e+06 3.54369e+06 2.2013e+06 1.51967e+06 1.07062e+06 643229 571294 453550 395505 328641 212951 211411 198711 192699 176303 161444 122202 114189 81086.7 75226 67993.1 65935.1 61203.1 56615.1 56544.8 54039.3 49100.3 47719.7
threshold=72.835000000000022 42.655000000000008 95.925000000000026 23.135000000000002 56.405000000000008 111.59500000000001 85.965000000000018 35.125000000000007 0.01911314984435496 0.031152647967799232 0.016985859300621665 14.375000000000002 0.021929824557796632 66.055000000000021 0.025057423303250895 81.045000000000016 116.13500000000001 51.955000000000005 0.0095693780771445563 28.645000000000003 63.845000000000006 101.63500000000001 80.725000000000009 63.345000000000006 76.355000000000004 0.025709694706422589 8.7850000000000019 19.140805500000003 0.021929824557796632 0.015662933761086354
decision_type=2 2 2 2 2 2 2 2 2 2 2 2 2 2 2 2 2 2 2 2 2 2 2 2 2 2 2 2 2 2
left_child=1 3 6 11 17 8 14 19 18 13 16 26 -8 15 -2 29 -7 28 21 -5 -11 -4 -23 -17 -18 -12 -1 -13 -3 -6
right_child=2 4 5 7 9 10 12 -9 -10 20 25 27 -14 -15 -16 23 24 -19 -20 -21 -22 22 -24 -25 -26 -27 -28 -29 -30 -31
leaf_value=-1.6687235476622277 0.50194172921000191 -0.42428638908762856 1.1725681905777794 -1.1228353533751856 -0.012408260726060664 1.5326967746810327 0.8704724218825084 -0.7347774104583551 0.91911858854497219 -0.1952276293453892 1.3931907520974751 -1.3930436941794004 0.60411356440800912 0.18297263237354855 0.27555961803067247 -0.01731884689831269 1.7083104760711063 -0.29989443538491939 1.1375372780457196 -0.96998182828258139 -0.019710789676320603 1.3093443456262706 1.5162035586302531 0.23195345377356158 1.9314682322073164 1.1630883173173197 -1.5183817229827563 -1.2502477935789078 -0.54459537881817621 -0.11864247519362373
leaf_weight=10599 29275 15811 6731 20310 23726 13264 25995 28648 18456 35132 7671 15099 10549 19421 14492 3722 8301 16918 14653 30668 8097 14559 5463 9235 4878 4103 15257 11806 18292 19065
leaf_count=10599 29275 15811 6731 20310 23726 13264 25995 28648 18456 35132 7671 15099 10549 19421 14492 3722 8301 16918 14653 30668 8097 14559 5463 9235 4878 4103 15257 11806 18292 19065
internal_value=2.8508e-05 -0.582944 0.986321 -1.13492 -0.15162 1.30773 0.593798 -0.924347 1.15048 -0.0333072 1.55406 -1.45272 0.793584 0.0409055 0.426983 -0.00858664 1.66139 -0.426172 1.2536 -1.03088 -0.162352 1.31717 1.36579 0.160348 1.79091 1.313 -1.58001 -1.33038 -0.488817 -0.0597396
internal_weight=480196 301806 178390 132387 169419 98079 80311 79626 59862 118398 38217 52761 36544 75169 43767 55748 26443 51021 41406 50978 43229 26753 20022 12957 13179 11774 25856 26905 34103 42791
internal_count=480196 301806 178390 132387 169419 98079 80311 79626 59862 118398 38217 52761 36544 75169 43767 55748 26443 51021 41406 50978 43229 26753 20022 12957 13179 11774 25856 26905 34103 42791
is_linear=0
shrinkage=0.05


Tree=6
num_leaves=31
num_cat=0
split_feature=2 2 2 2 2 2 2 2 10 10 10 2 2 10 10 2 10 10 10 2 2 2 11 2 10 2 2 2 2 2
split_gain=9.96735e+07 2.59394e+07 8.1247e+06 3.19818e+06 1.9917e+06 1.37318e+06 966234 581898 495623 373181 369115 296598 240901 192188 179676 129589 126703 106883 104198 94019.8 84054.4 75534.8 71077.3 64368.2 59706.4 51031.6 50285.1 48770.4 46684.5 46038.3
threshold=72.835000000000022 42.655000000000008 95.925000000000026 23.135000000000002 58.775000000000013 111.24500000000002 85.965000000000018 34.685000000000009 0.01911314984435496 0.015662933761086354 0.0087286693302269912 14.375000000000002 51.955000000000005 0.021929824557796632 0.02538071065506713 117.74500000000002 0.0469924811938063 0.0095693780771445563 0.025709694706422589 28.645000000000003 66.055000000000021 66.055000000000021 29.320000000000007 101.63500000000001 0.018632383079192422 8.7850000000000019 80.725000000000009 19.140805500000003 90.475000000000009 37.855000000000011
decision_type=2 2 2 2 2 2 2 2 2 2 2 2 2 2 2 2 2 2 2 2 2 2 2 2 2 2 2 2 2 2
left_child=1 3 6 11 12 8 14 19 17 20 15 25 -3 28 26 -7 21 23 -12 -5 -6 22 -11 -4 -14 -1 -2 -13 -8 -9
right_child=2 4 5 7 9 10 13 29 -10 16 18 27 24 -15 -16 -17 -18 -19 -20 -21 -22 -23 -24 -25 -26 -27 -28 -29 -30 -31
leaf_value=-1.5852873607743134 0.40891582952110322 -0.46437628269696507 1.1139397739668973 -1.0666935860306566 0.049295937129406275 1.5348690599015036 0.73342173636858055 -0.78221117424054576 0.87089675422518065 -0.12482375856050139 1.3751379473361309 -1.3233914924493746 -0.18187013028463847 0.57390789608469384 0.25587070695571251 1.8102106463848386 -0.21603560407636258 1.0765381199849136 1.0984857086094137 -0.92637854607835246 0.19972569700342918 0.059848244037464415 0.024777759558223571 1.2938866848678126 -0.33597674675001865 -1.4424626385844488 0.53832908266511581 -1.1877354013299852 0.8749537021460676 -0.65621218312276097
leaf_weight=10599 14888 34103 6731 20310 28432 14353 8817 11972 18156 30125 14994 15099 12334 10549 13740 6085 15579 14366 4403 28964 13790 11459 10781 18991 12816 15257 15139 11806 17178 18380
leaf_count=10599 14888 34103 6731 20310 28432 14353 8817 11972 18156 30125 14994 15099 12334 10549 13740 6085 15579 14366 4403 28964 13790 11459 10781 18991 12816 15257 15139 11806 17178 18380
internal_value=2.70848e-05 -0.553797 0.937005 -1.07818 -0.144039 1.24235 0.564108 -0.87813 1.08763 -0.0183106 1.46857 -1.38008 -0.377798 0.753905 0.405634 1.61685 -0.0908543 1.18578 1.31234 -0.984214 0.0984273 -0.0536119 -0.0853955 1.2468 -0.2604 -1.50101 0.474163 -1.26387 0.826949 -0.705911
internal_weight=480196 301806 178390 132387 169419 98079 80311 79626 58244 110166 39835 52761 59253 36544 43767 20438 67944 40088 19397 49274 42222 52365 40906 25722 25150 25856 30027 26905 25995 30352
internal_count=480196 301806 178390 132387 169419 98079 80311 79626 58244 110166 39835 52761 59253 36544 43767 20438 67944 40088 19397 49274 42222 52365 40906 25722 25150 25856 30027 26905 25995 30352
is_linear=0
shrinkage=0.05


Tree=7
num_leaves=31
num_cat=0
split_feature=2 2 2 2 2 2 2 10 10 10 2 2 10 2 2 4 10 2 2 10 2 2 2 2 10 4 2 4 2 2
split_gain=8.99724e+07 2.18251e+07 8.90162e+06 2.28161e+06 2.27161e+06 1.38611e+06 987397 494449 339922 335874 321126 221440 208725 205414 162921 158673 151610 118021 102780 94890.9 77066.7 73564.9 57798.6 57784.9 57477.8 55046.2 51925.7 50278.8 50244.8 48960.3
threshold=70.02500000000002 39.565000000000005 94.835000000000022 22.045000000000005 54.775000000000013 111.24500000000002 82.985000000000014 0.010137361269884728 0.031326685195911023 0.016985859300621665 32.025000000000013 11.875000000000002 0.022156982283324449 45.095000000000006 116.13500000000001 81.045000000000016 0.02623983205991082 64.195000000000007 104.12500000000001 0.028039348564501618 61.152130000000007 88.815000000000012 26.535000000000004 74.415000000000006 0.039047247162721725 76.355000000000004 36.045000000000009 65.765000000000015 17.000003100550003 60.215000000000011
decision_type=2 2 2 2 2 2 2 2 2 2 2 2 2 2 2 2 2 2 2 2 2 2 2 2 2 2 2 2 2 2
left_child=1 3 6 11 13 7 16 18 15 14 22 -1 21 -3 -7 17 23 -6 -4 -9 -17 -8 -5 -2 -15 -16 -12 -11 -13 -10
right_child=2 4 5 10 8 9 12 19 29 27 26 28 -14 24 25 20 -18 -19 -20 -21 -22 -23 -24 -25 -26 -27 -28 -29 -30 -31
leaf_value=-1.4606838342521926 0.26125287184517865 -0.56207328738213524 1.0657361940328487 -1.0527869083985582 -0.072979334510652374 1.3756195082248002 0.62822880788316604 0.93010667997863106 -0.28066242013718923 1.0906318449988694 -0.81979013021745328 -1.3070519227950301 0.48333131514636163 -0.32191925204600252 1.5410030548357732 -0.085495782687817809 0.17589593854517205 0.09722810697239323 1.2413514881069574 0.73690473453046967 0.1983950049096187 0.79090599099577941 -0.92988289109585009 0.41771197286094197 -0.45534671074193933 1.7526386111792385 -0.68842196152625124 1.2941680415847738 -1.1785265671599319 -0.14288397136391445
leaf_weight=18958 8219 22075 17196 15330 40887 14295 11866 20660 7924 7013 16967 15250 13223 23355 8301 2913 14533 13563 16162 9179 13330 16773 25441 20928 12334 4878 13513 5348 15167 34615
leaf_count=18958 8219 22075 17196 15330 40887 14295 11866 20660 7924 7013 16967 15250 13223 23355 8301 2913 14533 13563 16162 9179 13330 16773 25441 20928 12334 4878 13513 5348 15167 34615
internal_value=2.57292e-05 -0.550333 0.851133 -1.06534 -0.187034 1.16415 0.474117 1.01855 -0.0568703 1.39514 -0.884316 -1.32656 0.64764 -0.442186 1.49253 0.0103314 0.307816 -0.0305822 1.15082 0.870674 0.147482 0.723504 -0.976095 0.373593 -0.368031 1.61934 -0.761549 1.17869 -1.24296 -0.168549
internal_weight=480196 291622 188574 120626 170996 103032 85542 63197 113232 39835 71251 49375 41862 57764 27474 70693 43680 54450 33358 29839 16243 28639 40771 29147 35689 13179 30480 12361 30417 42539
internal_count=480196 291622 188574 120626 170996 103032 85542 63197 113232 39835 71251 49375 41862 57764 27474 70693 43680 54450 33358 29839 16243 28639 40771 29147 35689 13179 30480 12361 30417 42539
is_linear=0
shrinkage=0.05


Tree=8
num_leaves=31
num_cat=0
split_feature=2 2 2 2 2 2 2 10 2 10 2 10 2 10 10 2 4 2 4 4 2 4 2 2 10 10 2 10 2 2
split_gain=8.1214e+07 2.09004e+07 6.843e+06 2.60346e+06 1.58738e+06 1.12315e+06 839200 520916 472586 302080 242506 221104 197653 157154 155156 141163 115871 111023 100131 86335.4 77540 73214.7 69773.3 68720 48946.6 48354 48171.3 45731.9 45313.7 43728.5
threshold=72.325000000000003 42.655000000000008 95.925000000000026 23.135000000000002 58.775000000000013 113.79500000000002 85.965000000000018 0.01911314984435496 34.685000000000009 0.015662933761086354 14.375000000000002 0.016985859300621665 51.955000000000005 0.02538071065506713 0.021929824557796632 104.12500000000001 81.045000000000016 64.195000000000007 81.045000000000016 81.045000000000016 28.645000000000003 75.625000000000014 66.055000000000021 63.775000000000013 0.0090583812850289717 0.018786398811371178 76.115000000000023 0.028359408291675752 117.74500000000002 8.7850000000000019
decision_type=2 2 2 2 2 2 2 2 2 2 2 2 2 2 2 2 2 2 2 2 2 2 2 2 2 2 2 2 2 2
left_child=1 3 6 10 12 7 13 15 20 19 29 21 -3 26 -8 -4 17 23 24 22 -5 28 -6 -11 -17 -14 -2 -9 -7 -1
right_child=2 4 5 8 9 11 14 27 -10 16 -12 -13 25 -15 -16 18 -18 -19 -20 -21 -22 -23 -24 -25 -26 -27 -28 -29 -30 -31
leaf_value=-1.4329887682114584 0.30063589627895099 -0.41950225187778384 0.99510351201591973 -0.96325084717270204 -0.0019389652175249021 1.3287766512544523 0.74639568950431956 0.85468265571272539 -0.63754340580057234 -0.047893111088848625 -1.1405419290192043 1.1643154332660941 -0.16623866811102303 0.22264763669773369 0.51903654598799576 1.1813005384877497 0.039517713602474469 0.021006974056332589 1.3230447487975225 0.22021716902881311 -0.83582500860665077 1.5982537338018261 0.15773444816396129 -0.19497190765571773 1.0327537121235488 -0.3049074294638649 0.45434016051949738 0.69684777568559764 1.5225752333551394 -1.3007783088239031
leaf_weight=10599 6435 34103 19232 20310 21935 8013 25995 13237 30352 10708 26905 8025 12726 14440 10549 12389 14682 11110 7774 9411 28964 7508 9943 30744 10039 12424 24525 7025 4837 15257
leaf_count=10599 6435 34103 19232 20310 21935 8013 25995 13237 30352 10708 26905 8025 12726 14440 10549 12389 14682 11110 7774 9411 28964 7508 9943 30744 10039 12424 24525 7025 4837 15257
internal_value=2.4444e-05 -0.503539 0.839674 -0.973235 -0.132938 1.12145 0.502419 1.01347 -0.792746 -0.0193046 -1.24563 1.38659 -0.34108 0.358862 0.680765 1.10099 -0.0846688 -0.119357 1.16841 0.0871488 -0.888348 1.47421 0.0478644 -0.156978 1.11481 -0.23474 0.422393 0.79996 1.40173 -1.35497
internal_weight=480196 300173 180023 132387 167786 98079 81944 69696 79626 108533 52761 28383 59253 45400 36544 49434 67244 52562 30202 41289 49274 20358 31878 41452 22428 25150 30960 20262 12850 25856
internal_count=480196 300173 180023 132387 167786 98079 81944 69696 79626 108533 52761 28383 59253 45400 36544 49434 67244 52562 30202 41289 49274 20358 31878 41452 22428 25150 30960 20262 12850 25856
is_linear=0
shrinkage=0.05


Tree=9
num_leaves=31
num_cat=0
split_feature=10 10 10 8 10 8 8 10 8 8 10 10 8 10 4 10 10 8 8 10 10 10 10 10 10 10 10 10 10 10
split_gain=3.43659e+07 4.2682e+06 2.95685e+06 4.3526e+06 4.92716e+06 7.75149e+06 2.95613e+06 2.85342e+06 1.86482e+06 1.30042e+06 960125 774419 666492 627363 553576 523746 449306 411687 298623 290047 234939 173797 130379 126776 99249.3 95008.9 90709.9 79763.5 79670.6 79448.1
threshold=0.039890964867519897 0.067927092428213584 0.029559562514834034 1.5000000000000002 0.015068183613735736 1.0000000180025095e-35 1.5000000000000002 0.010760208778037881 2.5000000000000004 2.5000000000000004 0.019485580667456318 0.019301293183849457 2.5000000000000004 0.11496455677297419 81.045000000000016 0.0087815587428327468 0.023352209778344034 1.5000000000000002 2.5000000000000004 0.012138131984729928 0.049999999981250008 0.033422459888393714 0.0095693780771445563 0.051066003621362273 0.023152167695236332 0.017960576568298494 0.027337342804673866 0.083263946682187104 0.046558547646443203 0.033422459888393714
decision_type=2 2 2 2 2 2 2 2 2 2 2 2 2 2 2 2 2 2 2 2 2 2 2 2 2 2 2 2 2 2
left_child=2 8 3 4 5 14 -4 15 17 29 25 -6 16 18 -1 -7 -12 -2 -3 -9 28 -11 -17 -19 -13 -5 -14 -20 -10 -8
right_child=1 13 6 10 11 7 9 19 20 21 12 24 26 -15 -16 22 -18 23 27 -21 -22 -23 -24 -25 -26 -27 -28 -29 -30 -31
leaf_value=0.070231169792174405 -1.0290946440330175 -1.0596462687816024 -0.83310521597675591 1.1980692998316411 -0.07598786940332615 1.4143019424474588 -0.083521170861479962 0.600777226839593 0.0051604891479025044 0.58151674989875946 0.65391587490468639 -0.36293897895057486 0.9819422950567086 -1.2160370676260808 0.30480064900741477 1.1071723576263526 0.2406433398653065 -0.48524152220723393 -0.63236979640195357 0.25990272305198492 -0.38217159474463547 0.27382187591784513 0.87610149171992713 -0.74973700972770074 -0.59622311777243098 0.93281248136238271 0.73260553351732105 -0.84258274625874696 -0.18430920338989243 -0.27791416170198702
leaf_weight=106374 9067 14123 10754 7388 30684 9719 18577 10888 8746 8197 12808 8581 7630 25878 32941 11167 13518 9135 7770 14620 12548 10427 13466 8988 9728 6216 6989 10764 15175 7330
leaf_count=106374 9067 14123 10754 7388 30684 9719 18577 10888 8746 8197 12808 8581 7630 25878 32941 11167 13518 9135 7770 14620 12548 10427 13466 8988 9728 6216 6989 10764 15175 7330
internal_value=2.32199e-05 -0.723983 0.247143 0.308551 0.219662 0.330158 -0.0891031 0.806014 -0.440619 0.0905695 0.712946 -0.229544 0.592033 -1.03215 0.125695 1.10349 0.441707 -0.754032 -0.88644 0.405404 -0.20695 0.409248 0.980854 -0.616417 -0.486888 1.07687 0.86274 -0.754455 -0.115035 -0.138522
internal_weight=480196 122194 358002 302717 248168 199175 55285 59860 63659 44531 54549 48993 40945 58535 139315 34352 26326 27190 32657 25508 36469 18624 24633 18123 18309 13604 14619 18534 23921 25907
internal_count=480196 122194 358002 302717 248168 199175 55285 59860 63659 44531 54549 48993 40945 58535 139315 34352 26326 27190 32657 25508 36469 18624 24633 18123 18309 13604 14619 18534 23921 25907
is_linear=0
shrinkage=0.05


Tree=10
num_leaves=31
num_cat=0
split_feature=2 2 2 2 2 10 2 2 2 2 10 2 10 2 10 4 10 2 2 2 2 10 4 10 2 1 4 4 4 4
split_gain=6.84545e+07 1.77437e+07 5.46338e+06 2.28871e+06 1.31155e+06 1.07124e+06 543998 436050 412879 265556 250711 192095 157850 148597 143515 137481 126658 119075 83875.9 77149 70344.8 60959.5 56340.7 52472.3 51173.5 51170.5 44319.9 42130 39653.5 39570
threshold=72.835000000000022 43.015000000000008 94.835000000000022 22.545000000000005 58.775000000000013 0.0092596879675072817 85.965000000000018 35.125000000000007 113.79500000000002 110.88500000000001 0.031152647967799232 11.875000000000002 0.020133890419950982 51.955000000000005 0.025057423303250895 81.045000000000016 0.011132758174084391 63.845000000000006 104.12500000000001 117.74500000000002 28.205000000000002 0.025709694706422589 78.875000000000014 0.0469924811938063 18.695000000000004 58.500000000000007 88.035000000000011 80.185000000000016 80.185000000000016 75.235000000000014
decision_type=2 2 2 2 2 2 2 2 2 2 2 2 2 2 2 2 2 2 2 2 2 2 2 2 2 2 2 2 2 2
left_child=1 3 6 11 13 8 14 20 18 12 15 -1 27 -3 28 17 -8 25 -4 29 -5 26 -20 -12 -13 -6 -11 -7 -2 -10
right_child=2 4 5 7 10 9 16 -9 19 21 23 24 -14 -15 -16 -17 -18 -19 22 -21 -22 -23 -24 -25 -26 -27 -28 -29 -30 -31
leaf_value=-1.2755952468181451 0.36876219566812707 -0.37942462042830555 0.96250388950064947 -0.88499729919534031 -0.001412042247263501 0.83556682947459682 0.71428405267978368 -0.5740356535240867 1.2313625673936499 1.0634320088062792 -0.069068066844986134 -1.1233460759824183 0.67246141447757879 -0.21755903673882165 0.21019969830236473 0.17004700918431956 0.51403838402121504 0.10014366502156331 1.0788767542454074 1.515133531813043 -0.76621248206602732 0.8912293757140326 1.2667508439338524 -0.1869946758396398 -0.99248327547368387 -0.12547515894688491 1.3444474726621838 0.98952262409309566 0.50249665082876671 1.4172500296584909
leaf_weight=19089 21678 32599 11362 20296 19985 16660 15387 30345 7998 8312 23953 20385 16229 25093 14446 16123 16222 20176 13668 6083 32298 4618 5636 15561 11792 14229 1688 6060 7447 4459
leaf_count=19089 21678 32599 11362 20296 19985 16660 15387 30345 7998 8312 23953 20385 16229 25093 14446 16123 16222 20176 13668 6083 32298 4618 5636 15561 11792 14229 1688 6060 7447 4459
internal_value=-0.000336798 -0.458806 0.777525 -0.887305 -0.11593 1.01448 0.453606 -0.724968 1.1829 0.859761 -0.0146841 -1.14994 0.791559 -0.309022 0.339048 0.0418158 0.611516 0.00380388 1.07029 1.36918 -0.812051 1.04148 1.13373 -0.115509 -1.07539 -0.0530077 1.11087 0.876631 0.402957 1.2979
internal_weight=479877 301924 177953 134205 167719 102773 75180 82939 49206 53567 110027 51266 38949 57692 43571 70513 31609 54390 30666 18540 52594 14618 19304 39514 32177 34214 10000 22720 29125 12457
internal_count=479877 301924 177953 134205 167719 102773 75180 82939 49206 53567 110027 51266 38949 57692 43571 70513 31609 54390 30666 18540 52594 14618 19304 39514 32177 34214 10000 22720 29125 12457
is_linear=0
shrinkage=0.05


Tree=11
num_leaves=31
num_cat=0
split_feature=10 10 10 8 10 8 8 10 8 8 10 10 10 8 4 10 10 8 8 10 10 10 10 10 8 10 10 9 10 8
split_gain=2.81528e+07 3.4797e+06 2.36041e+06 3.56189e+06 3.94172e+06 6.38477e+06 2.46281e+06 2.28404e+06 1.33487e+06 1.06906e+06 772392 661884 614808 501363 454870 409996 395084 332994 269953 236580 151096 139958 100904 93037.2 92922.9 89093.6 76281.7 68962.4 68866.4 70029
threshold=0.039890964867519897 0.062073246414733808 0.02935995302048347 1.5000000000000002 0.015068183613735736 1.0000000180025095e-35 1.5000000000000002 0.010760208778037881 2.5000000000000004 2.5000000000000004 0.019301293183849457 0.10674257583641288 0.018951058930260351 2.5000000000000004 81.045000000000016 0.0087815587428327468 0.023352209778344034 1.5000000000000002 2.5000000000000004 0.01250547119095374 0.033165662578110593 0.0469924811938063 0.0095693780771445563 0.081749441337041803 1.5000000000000002 0.022853225233386756 0.033422459888393714 1.5000000000000002 0.13802623222360569 2.5000000000000004
decision_type=2 2 2 2 2 2 2 2 2 2 2 2 2 2 2 2 2 2 2 2 2 2 2 2 2 2 2 2 2 2
left_child=2 8 3 4 5 14 -4 15 17 26 -5 18 -6 16 27 -7 -12 -2 24 -9 -11 -10 -17 -20 -3 -14 -8 -1 29 -13
right_child=1 11 6 10 12 7 9 19 21 20 13 28 25 -15 -16 22 -18 -19 23 -21 -22 -23 -24 -25 -26 -27 -28 -29 -30 -31
leaf_value=0.033753261229751599 -0.91576517756609344 -1.0860548574394921 -0.74662003459412951 0.98605368663917659 -0.059972640346479505 1.2707803233859583 -0.065316104703833103 0.51662433594519641 0.0015169239649812001 0.53446399974290182 0.60356170865990333 -1.1107915476258554 -0.31341370903069599 0.78467821460158838 0.27555267919734477 0.99844625768212514 0.21876387669707303 -0.51900176506482798 -0.53109556330357433 0.21143420384387737 0.25083267396942244 -0.22717991191111253 0.79453539418960561 -0.74760203544669712 -0.8290375826779498 -0.52846399057989879 -0.2554824144349272 0.1189920591827211 -1.1353165637960123 -0.85559232853217471
leaf_weight=70666 8097 5101 10944 12901 29537 9792 18935 13412 9300 8252 13613 5119 9451 13973 32719 11189 13080 15245 10346 12060 10895 23836 13253 9535 11323 9821 7309 35725 18787 5661
leaf_count=70666 8097 5101 10944 12901 29537 9792 18935 13412 9300 8252 13613 5119 9451 13973 32719 11189 13080 15245 10346 12060 10895 23836 13253 9535 11323 9821 7309 35725 18787 5661
internal_value=-0.000319959 -0.654983 0.223714 0.279275 0.199303 0.298145 -0.0733447 0.730646 -0.367012 0.0889854 0.648965 -0.901887 -0.203314 0.542026 0.112515 0.997402 0.415005 -0.656633 -0.758856 0.372129 0.373072 -0.162994 0.887881 -0.634933 -0.908863 -0.423003 -0.118278 0.0623756 -1.07751 -0.976776
internal_weight=479877 122350 357527 301192 247625 198816 56335 59706 56478 45391 53567 65872 48809 40666 139110 34234 26693 23342 36305 25472 19147 33136 24442 19881 16424 19272 26244 106391 29567 10780
internal_count=479877 122350 357527 301192 247625 198816 56335 59706 56478 45391 53567 65872 48809 40666 139110 34234 26693 23342 36305 25472 19147 33136 24442 19881 16424 19272 26244 106391 29567 10780
is_linear=0
shrinkage=0.05


Tree=12
num_leaves=31
num_cat=0
split_feature=2 2 2 2 2 10 2 2 2 10 10 2 2 10 10 2 4 2 2 4 2 4 2 1 10 10 4 2 2 10
split_gain=5.76304e+07 1.49071e+07 4.61778e+06 1.64761e+06 1.4411e+06 1.07812e+06 456744 297654 272555 223433 218790 140466 138143 127773 126209 123551 110865 113593 110537 83023.5 58893.9 57840.4 54838.8 45926.3 41919.7 39743.9 33479.9 30856.5 29381.8 29206.6
threshold=72.835000000000022 40.885000000000012 94.835000000000022 21.465000000000003 56.405000000000008 0.0090583812850289717 85.965000000000018 116.13500000000001 33.995000000000012 0.027337342804673866 0.031152647967799232 104.12500000000001 11.875000000000002 0.025057423303250895 0.011132758174084391 47.975000000000001 81.045000000000016 63.845000000000006 104.12500000000001 80.725000000000009 26.535000000000004 75.235000000000014 63.345000000000006 58.500000000000007 0.0469924811938063 0.017960576568298494 82.035000000000011 36.995000000000012 17.000003100550003 0.010137361269884728
decision_type=2 2 2 2 2 2 2 2 2 2 2 2 2 2 2 2 2 2 2 2 2 2 2 2 2 2 2 2 2 2
left_child=1 3 6 12 15 7 13 18 20 11 16 29 -1 26 -8 -3 17 23 -4 25 -5 -20 -18 -6 -12 -13 -2 -10 -14 -7
right_child=2 4 5 8 10 9 14 -9 27 -11 24 19 28 -15 -16 -17 22 -19 21 -21 -22 -23 -24 -25 -26 -27 -28 -29 -30 -31
leaf_value=-1.1713334684018735 0.34159849858928282 -0.40611904591474191 0.90834320426103377 -0.83882936878270087 -0.0097712064849564649 0.81899916257417082 0.66289497745564141 1.3306571214692378 -0.62670313405745326 0.58886570295913609 -0.072985780356030511 0.92586416856239218 -1.045435437117411 0.18907057563999044 0.46300476080960051 -0.25962103108050705 -0.03230007230822713 0.090468859748049024 1.0421408882291263 1.0614764276661082 -0.72472289367253573 1.2061020925125305 0.1857598661858289 -0.12161805292617932 -0.17350187503562212 0.7846649552305216 0.46886262382923216 -0.51932962467533839 -0.94432363852916845 0.68169340832337433
leaf_weight=19089 22408 27131 11362 16974 21965 5704 15387 11396 11955 11698 25722 10164 15296 14446 16222 30652 3664 20176 15899 6578 33877 8129 13530 15766 17382 9778 6717 15196 13549 12065
leaf_count=19089 22408 27131 11362 16974 21965 5704 15387 11396 11955 11698 25722 10164 15296 14446 16222 30652 3664 20176 15899 6578 33877 8129 13530 15766 17382 9778 6717 15196 13549 12065
internal_value=-0.00030396 -0.420967 0.713415 -0.836289 -0.123765 0.931259 0.415616 1.10841 -0.694517 0.783219 -0.0237293 0.834553 -1.06699 0.310647 0.56031 -0.328407 0.0278056 -0.00529737 1.03685 0.907441 -0.762811 1.09761 0.139292 -0.0565067 -0.11352 0.856631 0.370949 -0.566608 -0.997941 0.72577
internal_weight=479877 301924 177953 125936 175988 102773 75180 46786 78002 55987 118205 44289 47934 43571 31609 57783 75101 57907 35390 26520 50851 24028 17194 37731 43104 19942 29125 27151 28845 17769
internal_count=479877 301924 177953 125936 175988 102773 75180 46786 78002 55987 118205 44289 47934 43571 31609 57783 75101 57907 35390 26520 50851 24028 17194 37731 43104 19942 29125 27151 28845 17769
is_linear=0
shrinkage=0.05


Tree=13
num_leaves=31
num_cat=0
split_feature=2 2 2 2 2 10 2 2 2 10 2 10 10 2 2 4 2 2 10 10 4 2 4 1 4 4 2 10 4 4
split_gain=5.20259e+07 1.2716e+07 4.97413e+06 1.40559e+06 1.28967e+06 1.04914e+06 381108 342165 245155 180344 165801 153741 139083 125850 124674 93692.8 85477.4 73086.4 71555.7 65610 55662.1 54170.9 51814.6 41430 37963.9 36766.9 35212.6 33950.6 32870.5 32276.8
threshold=70.52500000000002 39.295000000000009 92.695000000000007 54.775000000000013 21.465000000000003 0.0092596879675072817 80.725000000000009 113.79500000000002 110.88500000000001 0.031326685195911023 32.025000000000013 0.011752952968628645 0.020325203248934168 45.095000000000006 11.875000000000002 81.045000000000016 101.63500000000001 64.195000000000007 0.026769580843316005 0.0086128935168030638 81.045000000000016 63.345000000000006 84.735000000000014 58.500000000000007 80.185000000000016 80.185000000000016 26.535000000000004 0.025709694706422589 74.145000000000024 82.035000000000011
decision_type=2 2 2 2 2 2 2 2 2 2 2 2 2 2 2 2 2 2 2 2 2 2 2 2 2 2 2 2 2 2
left_child=1 4 6 13 14 7 18 16 12 15 26 29 25 -3 -1 17 -4 23 -2 28 -18 -17 27 -5 -11 -7 -6 -10 -9 -8
right_child=2 3 5 9 10 8 11 19 22 24 -12 -13 -14 -15 -16 21 20 -19 -20 -21 -22 -23 -24 -25 -26 -27 -28 -29 -30 -31
leaf_value=-1.1127667920611566 0.26393854124140409 -0.42992833473021685 0.81861244143033918 -0.014793899721710661 -0.79688790358354566 0.70257942666490258 0.50052219090651351 1.1902328662638262 0.91271889579120424 -0.14692748110004192 -0.58573673246525093 0.34517572104069721 0.55990600638705379 -0.28124535029615344 -0.94804438664731761 -0.039677830999704157 0.94214551982915273 0.073006882883387178 0.10790426498955084 1.015143941565301 1.1202686163709503 0.16666909508895789 1.0927185276504143 -0.11674705540192226 -0.033809528995395084 0.83688017249218594 -0.70393290638378681 0.73199540627883852 1.3434251141886835 0.64524770233658302
leaf_weight=19089 22280 23619 10849 23727 16974 18985 15479 9092 7953 33422 28838 21388 18751 35811 28845 4312 16491 14508 10963 3753 5975 12122 2805 17179 9533 6966 25484 3860 5695 5129
leaf_count=19089 22280 23619 10849 23727 16974 18985 15479 9092 7953 33422 28838 21388 18751 35811 28845 4312 16491 14508 10963 3753 5975 12122 2805 17179 9533 6966 25484 3860 5695 5129
internal_value=-0.000288763 -0.415221 0.65292 -0.142954 -0.813091 0.865395 0.338962 1.02968 0.721787 -0.0407748 -0.678255 0.439082 0.663661 -0.340336 -1.01364 0.00768071 0.933863 -0.0234134 0.212481 1.20185 0.989519 0.112527 0.899537 -0.0576104 -0.121823 0.73863 -0.741095 0.853666 1.24923 0.536542
internal_weight=479877 293463 186414 174233 119230 111175 75239 51855 59320 114803 71296 41996 44702 59430 47934 71848 33315 55414 33243 18540 22466 16434 14618 40906 42955 25951 42458 11813 14787 20608
internal_count=479877 293463 186414 174233 119230 111175 75239 51855 59320 114803 71296 41996 44702 59430 47934 71848 33315 55414 33243 18540 22466 16434 14618 40906 42955 25951 42458 11813 14787 20608
is_linear=0
shrinkage=0.05


Tree=14
num_leaves=31
num_cat=0
split_feature=2 2 2 2 2 10 2 2 2 10 10 10 2 10 2 2 4 2 4 2 2 4 2 4 2 1 4 2 10 10
split_gain=4.69612e+07 1.21515e+07 3.76956e+06 1.56555e+06 911079 828053 460058 296888 218582 176023 171866 136087 135845 110187 98417.6 95888.7 88882.9 80421 69009.5 62318.7 63351.3 47886.4 47545.5 46780.1 46513.3 41066.2 34640.1 33764.7 30703 30637.5
threshold=72.835000000000022 43.015000000000008 95.925000000000026 22.545000000000005 58.775000000000013 0.0089778695688402851 85.965000000000018 35.125000000000007 116.13500000000001 0.027337342804673866 0.015662933761086354 0.010989614845973899 14.375000000000002 0.01250547119095374 51.955000000000005 104.12500000000001 81.045000000000016 104.12500000000001 69.305000000000021 63.845000000000006 63.775000000000013 81.045000000000016 28.205000000000002 75.235000000000014 66.055000000000021 74.500000000000014 82.035000000000011 7.6450000000000005 0.01816365467462943 0.038261645921265533
decision_type=2 2 2 2 2 2 2 2 2 2 2 2 2 2 2 2 2 2 2 2 2 2 2 2 2 2 2 2 2 2
left_child=1 3 6 12 14 8 13 22 17 15 21 -8 27 -2 -3 -7 19 -4 28 20 -12 24 -5 -19 -6 -22 -13 -1 -17 -15
right_child=2 4 5 7 10 9 11 -9 -10 -11 16 26 -14 29 -16 18 -18 23 -20 -21 25 -23 -24 -25 -26 -27 -28 -29 -30 -31
leaf_value=-1.1238263587346136 0.37129401724012134 -0.31449145377226284 0.82774127784226459 -0.73217601502063856 -0.0031275171202422799 0.66535805156213323 0.62286020236643114 -0.47580865456299026 1.2016249778387342 0.54017532903678611 -0.016614143638510416 0.39336584565308996 -0.86938090165355641 0.23550678233923944 -0.18276116341396553 0.8176356399944279 0.047202165340014465 0.94745601740502561 0.9192568175908985 0.0079064049469331835 -0.12511326396722106 0.1661201527833317 -0.63451986500930202 1.0987717892119699 0.12431299498299352 -0.26164760898881723 0.55328929622304068 -0.99670071054130394 0.68165635759464249 0.085981850623013889
leaf_weight=7245 18784 32599 9833 20296 21814 15271 17197 30345 11396 10793 10765 14968 25304 20681 25093 9449 14841 15042 10919 12220 22942 9540 32298 7734 10658 7247 4376 18717 7404 4106
leaf_count=7245 18784 32599 9833 20296 21814 15271 17197 30345 11396 10793 10765 14968 25304 20681 25093 9449 14841 15042 10919 12220 22942 9540 32298 7734 10658 7247 4376 18717 7404 4106
internal_value=-0.000274325 -0.380008 0.644 -0.734612 -0.0962614 0.852234 0.389684 -0.600349 1.01312 0.720726 -0.0118764 0.520523 -0.951823 0.279956 -0.257196 0.765998 -0.0609897 0.947245 0.821338 -0.0911864 -0.120754 0.0676352 -0.672205 0.998838 0.0387012 -0.157889 0.429544 -1.03218 0.757896 0.210738
internal_weight=479877 301924 177953 134205 167719 97841 80112 82939 44005 53836 110027 36541 51266 43571 57692 43043 68015 32609 27772 53174 40954 42012 52594 22776 32472 30189 19344 25962 16853 24787
internal_count=479877 301924 177953 134205 167719 97841 80112 82939 44005 53836 110027 36541 51266 43571 57692 43043 68015 32609 27772 53174 40954 42012 52594 22776 32472 30189 19344 25962 16853 24787
is_linear=0
shrinkage=0.05


Tree=15
num_leaves=31
num_cat=0
split_feature=2 2 2 2 2 10 2 2 2 2 10 2 2 10 10 10 2 4 4 2 4 10 2 2 4 2 4 4 2 1
split_gain=4.22031e+07 1.10068e+07 3.42959e+06 1.29203e+06 977906 802921 337212 238837 218369 176938 152435 112824 105653 101496 95509.1 83014.5 79173.6 71833.7 70501.5 58678.7 53393 50265.7 47408.3 42777.9 42619.7 42442.2 34591.1 32490 30053.2 28515.8
threshold=72.835000000000022 41.745000000000012 94.835000000000022 21.465000000000003 58.775000000000013 0.0089778695688402851 85.965000000000018 33.995000000000012 116.13500000000001 106.88500000000001 0.015068183613735736 49.865000000000002 11.875000000000002 0.021929824557796632 0.01250547119095374 0.020325203248934168 104.12500000000001 81.045000000000016 82.835000000000022 64.195000000000007 81.045000000000016 0.017527715731802614 63.775000000000013 27.335000000000004 80.435000000000016 64.195000000000007 79.865000000000023 76.355000000000004 36.995000000000012 70.500000000000014
decision_type=2 2 2 2 2 2 2 2 2 2 2 2 2 2 2 2 2 2 2 2 2 2 2 2 2 2 2 2 2 2
left_child=1 3 6 12 11 8 14 23 16 15 20 -3 -1 26 -2 -7 -4 21 19 22 25 -11 -12 -5 -18 -6 -8 -10 -9 -24
right_child=2 4 5 7 10 9 13 28 27 17 18 -13 -14 -15 -16 -17 24 -19 -20 -21 -22 -23 29 -25 -26 -27 -28 -29 -30 -31
leaf_value=-1.0071244842322482 0.34895852974510905 -0.32559653846393033 0.78393720577899562 -0.71084264012605836 -0.010413075192277287 0.6593426607439723 0.49896532517791803 -0.53939668561090126 1.0804193145044272 0.82867707156527892 -0.01779762412367052 -0.19123942133158661 -0.85533137482862953 0.34255690547984946 0.19979683287904715 0.49285504263381541 0.90358152418572812 0.92109507127172974 0.047976751281740469 0.012281896734976452 0.17507658802240325 0.6634276050823622 -0.10881107344194155 -0.6172032743865663 1.0571099201290963 0.10980490604843884 0.63896788080968825 1.2553121105999119 -0.4376603270288878 -0.21465249567412822
leaf_weight=19073 18902 30616 11314 20326 18524 19219 15889 11945 7236 7314 11047 31911 28733 9539 24828 12266 16389 6095 13715 13555 9111 12410 23076 30496 6242 12162 6108 4195 18504 8787
leaf_count=19073 18902 30616 11314 20326 18524 19219 15889 11945 7236 7314 11047 31911 28733 9539 24828 12266 16389 6095 13715 13555 9111 12410 23076 30496 6242 12162 6108 4195 18504 8787
internal_value=-0.000122874 -0.360434 0.610529 -0.709635 -0.0991434 0.798462 0.354145 -0.588308 0.955586 0.674044 -0.00937947 -0.257027 -0.915892 0.478771 0.264271 0.594482 0.891935 0.771066 -0.0537077 -0.0784062 0.0687911 0.724705 -0.107054 -0.654654 0.945927 0.0372338 0.53784 1.1446 -0.477571 -0.137999
internal_weight=479527 301581 177946 129077 172504 102680 75266 81271 45376 57304 109977 62527 47806 31536 43730 31485 33945 25819 70180 56465 39797 19724 42910 50822 22631 30686 21997 11431 30449 31863
internal_count=479527 301581 177946 129077 172504 102680 75266 81271 45376 57304 109977 62527 47806 31536 43730 31485 33945 25819 70180 56465 39797 19724 42910 50822 22631 30686 21997 11431 30449 31863
is_linear=0
shrinkage=0.05


Tree=16
num_leaves=31
num_cat=0
split_feature=2 2 2 2 2 10 2 2 2 10 2 10 4 10 2 2 2 4 2 2 10 10 2 4 1 2 2 4 4 4
split_gain=3.80985e+07 9.2763e+06 3.80637e+06 1.03216e+06 955508 777836 311532 227816 196901 152932 144996 114941 106416 86332.1 78116 77582.4 70571.4 69205.9 61965.8 60360.5 58393.6 50395.2 47204.9 40128.8 37142.7 32634.1 28111.1 27934.2 27137.1 26887
threshold=70.02500000000002 39.295000000000009 92.695000000000007 53.945000000000007 20.205000000000002 0.0089778695688402851 80.725000000000009 113.79500000000002 106.52500000000002 0.033165662578110593 32.025000000000013 0.011752952968628645 81.045000000000016 0.020325203248934168 46.175000000000004 11.000021305000002 101.63500000000001 81.045000000000016 64.195000000000007 117.74500000000002 0.013505300890333931 0.025873221645697896 63.775000000000013 81.045000000000016 58.500000000000007 26.025000000000002 64.195000000000007 79.865000000000023 75.235000000000014 82.035000000000011
decision_type=2 2 2 2 2 2 2 2 2 2 2 2 2 2 2 2 2 2 2 2 2 2 2 2 2 2 2 2 2 2
left_child=1 4 6 14 15 7 20 16 13 12 25 29 18 -7 -3 -1 -4 21 24 28 -2 -10 -14 -18 -5 -6 -11 -13 -9 -8
right_child=2 3 5 9 10 8 11 19 17 26 -12 27 22 -15 -16 -17 23 -19 -20 -21 -22 -23 -24 -25 -26 -27 -28 -29 -30 -31
leaf_value=-0.9639466125052224 0.24809625638632515 -0.3613879576044608 0.70596303724898768 -0.024433433139973273 -0.69433996438235646 0.61508855752012803 0.42785234463278371 0.91257182580447216 0.73634027805349378 -0.15960630323463593 -0.50066267095984329 0.26281193437848022 -0.028195203039280643 0.45793831573635696 -0.24314635845424493 -0.82839691814181726 0.82201988357209455 0.87367247782962265 0.059957081591608133 1.1595111450178051 0.11798689314303951 0.56690134362481415 0.14381588009758806 0.98795202344714805 -0.10867360908374653 -0.60854867542530933 -0.027291754859729317 0.39618115379299707 1.0666906270168981 0.55991292526284575
leaf_weight=17313 15290 26960 10861 31236 18765 21105 15553 7991 14322 24392 28901 16171 5523 14916 28986 27048 13638 6306 13540 6116 19779 6327 14356 4972 22518 27083 4805 5185 4445 5124
leaf_count=17313 15290 26960 10861 31236 18765 21105 15553 7991 14322 24392 28901 16171 5523 14916 28986 27048 13638 6306 13540 6116 19779 6327 14356 4972 22518 27083 4805 5185 4445 5124
internal_value=-0.00011673 -0.358171 0.554618 -0.123637 -0.697469 0.742076 0.284747 0.893648 0.626494 -0.0387888 -0.588373 0.37655 -0.00561639 0.550014 -0.300126 -0.881299 0.807243 0.728697 -0.0356421 1.03091 0.174714 0.684423 0.0960259 0.866352 -0.0597223 -0.643662 -0.137831 0.295193 0.967659 0.460578
internal_weight=479527 291426 188101 172316 119110 110999 77102 48023 62976 116370 74749 42033 87173 36021 55946 44361 29471 26955 67294 18552 35069 20649 19879 18610 53754 45848 29197 21356 12436 20677
internal_count=479527 291426 188101 172316 119110 110999 77102 48023 62976 116370 74749 42033 87173 36021 55946 44361 29471 26955 67294 18552 35069 20649 19879 18610 53754 45848 29197 21356 12436 20677
is_linear=0
shrinkage=0.05


Tree=17
num_leaves=31
num_cat=0
split_feature=2 2 2 2 2 10 2 2 10 10 10 2 2 10 2 4 2 4 4 2 2 2 9 2 2 4 2 10 10 4
split_gain=3.43905e+07 9.07588e+06 2.70581e+06 1.15573e+06 703324 537344 466580 208803 141404 134055 122458 121697 117729 105581 81385.8 61753.4 50839.1 47464.8 46337.7 46300.6 57308.7 45231.2 40241.8 36884.7 36431.6 33939.7 33047.9 32446.3 30756.6 29151.7
threshold=73.375000000000014 43.015000000000008 98.625000000000014 23.135000000000002 59.745000000000012 0.0087815587428327468 89.425000000000026 35.645000000000003 0.018497109863577558 0.015068183613735736 0.012138131984729928 16.605000000000004 117.74500000000002 0.010760208778037881 52.725000000000001 82.835000000000022 106.88500000000001 79.865000000000023 81.045000000000016 63.845000000000006 63.775000000000013 116.13500000000001 1.5000000000000002 8.2550000000000008 29.440000000000001 70.945000000000007 64.195000000000007 0.038261645921265533 0.027337342804673866 75.625000000000014
decision_type=2 2 2 2 2 2 2 2 2 2 2 2 2 2 2 2 2 2 2 2 2 2 2 2 2 2 2 2 2 2
left_child=1 3 6 11 14 12 10 24 21 18 -2 23 16 -8 -3 19 -4 28 26 20 -11 25 29 -1 -5 -7 -6 -12 -10 -18
right_child=2 4 5 7 9 8 13 -9 17 15 27 -13 -14 -15 -16 -17 22 -19 -20 -21 -22 -23 -24 -25 -26 -27 -28 -29 -30 -31
leaf_value=-0.95831403993194475 0.35836026459256143 -0.26394525539124336 0.76540546270923393 -0.61686311477696854 -0.0037964749465097185 0.65551436930819806 0.58536490076320835 -0.40346617359057818 0.5708757444440975 0.013043487256670223 0.22440662087970439 -0.71589398373784063 1.1015355954204076 0.41478888531893143 -0.14640059905726552 0.050793192710033769 0.80160094724933184 0.68958182885271446 0.1687547814547975 0.0062892972195524796 -0.12923227301301773 0.90245910025722353 1.0008226164324201 -0.83920760203665756 -0.53325366515890837 0.77881443238088777 0.10131712440549825 0.067586428089291245 0.43557269602854537 0.95557644159075572
leaf_weight=8974 22648 35692 9527 23755 17718 14584 18569 28765 10840 9174 27282 20234 6116 17737 25069 13440 8954 5255 9155 14977 30976 3220 7164 23578 28855 9041 12938 3752 6857 4681
leaf_count=8974 22648 35692 9527 23755 17718 14584 18569 28765 10840 9174 27282 20234 6116 17737 25069 13440 8954 5255 9155 14977 30976 3220 7164 23578 28855 9041 12938 3752 6857 4681
internal_value=-0.000110894 -0.322873 0.555387 -0.629978 -0.0792774 0.755522 0.36359 -0.511783 0.648753 -0.00293471 0.26996 -0.812188 0.901418 0.502031 -0.215448 -0.0453073 0.86106 0.557632 0.0700441 -0.0687366 -0.0967232 0.726661 0.904874 -0.872043 -0.571006 0.7027 0.0405655 0.205447 0.51845 0.854462
internal_weight=479527 303300 176227 134161 169139 86239 89988 81375 49797 108378 53682 52786 36442 36306 60761 68567 30326 22952 39811 55127 40150 26845 20799 32552 52610 23625 30656 31034 17697 13635
internal_count=479527 303300 176227 134161 169139 86239 89988 81375 49797 108378 53682 52786 36442 36306 60761 68567 30326 22952 39811 55127 40150 26845 20799 32552 52610 23625 30656 31034 17697 13635
is_linear=0
shrinkage=0.05


Tree=18
num_leaves=31
num_cat=0
split_feature=2 2 2 2 2 10 2 2 2 2 10 10 2 2 10 4 4 2 10 10 2 2 2 4 8 4 1 10 10 4
split_gain=3.10447e+07 7.56204e+06 3.10071e+06 839852 781094 639159 257873 186041 166218 132185 119959 95531.7 89672.8 82539.7 73021.4 68295.8 54546.8 51128.1 46962.4 38404.1 36657.4 34976.1 33639.4 32374.2 31689.2 27222.4 26386.5 25807.9 25719.7 25237.4
threshold=70.02500000000002 39.295000000000009 92.695000000000007 55.835000000000008 19.140805500000003 0.0089778695688402851 80.725000000000009 116.13500000000001 106.88500000000001 32.025000000000013 0.031152647967799232 0.011752952968628645 46.715000000000011 104.12500000000001 0.020325203248934168 80.725000000000009 81.045000000000016 8.7850000000000019 0.013505300890333931 0.017527715731802614 63.775000000000013 63.845000000000006 26.025000000000002 80.435000000000016 1.0000000180025095e-35 71.245000000000019 58.500000000000007 0.037907505680138447 0.010137361269884728 79.865000000000023
decision_type=2 2 2 2 2 2 2 2 2 2 2 2 2 2 2 2 2 2 2 2 2 2 2 2 2 2 2 2 2 2
left_child=1 4 6 12 17 7 18 13 14 22 15 -8 -3 -4 28 21 19 -1 -2 -10 -17 26 -6 -15 -19 -9 -5 -14 -7 -13
right_child=2 3 5 10 9 8 11 25 16 -11 -12 29 27 23 -16 20 -18 24 -20 -21 -22 -23 -24 -25 -26 -27 -28 -29 -30 -31
leaf_value=-0.90077597615682026 0.22277533981188491 -0.32305929051904353 0.65662488981071765 -0.004853380286840115 -0.63247635284884618 0.62451267430101431 0.41720542135911781 0.91762034393243685 0.71299723250839375 -0.45204616844156953 -0.095351516557753424 0.23565051969575701 -0.17022474361841969 0.77430940014730609 0.41369036315244601 -0.024770040884824381 0.79325238224167083 -0.85813101130156655 0.10609408735916018 0.56855534922146678 0.14799148292994058 0.051903597348275314 -0.54938784792553652 0.90811782724870671 -0.7425814509456049 1.0739406012109156 -0.089153099477129072 -0.26100640118363899 0.51304356456300748 0.36241844380779148
leaf_weight=10636 15290 28572 13961 22249 22140 8429 20677 6627 7314 28901 41430 16171 21761 16389 15324 4150 6095 8090 19779 12410 11804 14194 27083 6242 22260 4804 15928 12228 13404 5185
leaf_count=10636 15290 28572 13961 22249 22140 8429 20677 6627 7314 28901 41430 16171 21761 16389 15324 4150 6095 8090 19779 12410 11804 14194 27083 6242 22260 4804 15928 12228 13404 5185
internal_value=-0.000105349 -0.323318 0.500651 -0.111562 -0.629666 0.669842 0.257076 0.807239 0.565068 -0.536924 -0.028223 0.340599 -0.257769 0.752235 0.497356 0.0124816 0.662516 -0.806441 0.156967 0.622117 0.103052 -0.0151094 -0.58676 0.811216 -0.773382 0.983316 -0.0400244 -0.202885 0.556078 0.266428
internal_weight=479527 291426 188101 172316 119110 110999 77102 48023 62976 78124 109755 42033 62561 36592 37157 68325 25819 40986 35069 19724 15954 52371 49223 22631 30350 11431 38177 33989 21833 21356
internal_count=479527 291426 188101 172316 119110 110999 77102 48023 62976 78124 109755 42033 62561 36592 37157 68325 25819 40986 35069 19724 15954 52371 49223 22631 30350 11431 38177 33989 21833 21356
is_linear=0
shrinkage=0.05


Tree=19
num_leaves=31
num_cat=0
split_feature=2 2 2 2 2 10 2 2 10 10 2 10 2 10 2 4 4 2 2 2 4 4 4 2 4 2 9 2 2 9
split_gain=2.80293e+07 7.4763e+06 2.13784e+06 941820 587623 441675 362376 171235 115710 114885 100858 98573.1 98239 85242.3 65151.3 53475.2 44233.9 40265.4 51769.4 40263.6 40168.6 40021.1 37637.7 29986.1 29901 27381.1 27353.9 27051.7 26212.4 25999.3
threshold=73.925000000000026 43.015000000000008 98.625000000000014 23.135000000000002 59.745000000000012 0.0087815587428327468 89.425000000000026 33.995000000000012 0.018497109863577558 0.015068183613735736 16.605000000000004 0.024191109852714988 117.74500000000002 0.010760208778037881 52.725000000000001 82.835000000000022 75.985000000000014 63.845000000000006 63.775000000000013 114.06500000000001 79.865000000000023 79.865000000000023 80.725000000000009 7.6450000000000005 80.185000000000016 64.195000000000007 1.5000000000000002 36.995000000000012 112.69500000000001 1.5000000000000002
decision_type=2 2 2 2 2 2 2 2 2 2 2 2 2 2 2 2 2 2 2 2 2 2 2 2 2 2 2 2 2 2
left_child=1 3 6 10 14 12 11 -5 19 22 23 21 16 29 -3 17 26 18 -11 24 28 -2 25 -1 -7 -6 -4 -9 -10 -8
right_child=2 4 5 7 9 8 13 27 20 15 -12 -13 -14 -15 -16 -17 -18 -19 -20 -21 -22 -23 -24 -25 -26 -27 -28 -29 -30 -31
leaf_value=-0.87765222174369861 0.26440537954758681 -0.23811160505704901 0.69183859897184585 -0.52587448055925223 -0.002015401332868553 0.59103593492615381 0.48363447730509235 -0.44094124133782214 0.43367631567822457 0.016017701359593149 -0.6455382974433006 0.1513783101073293 0.99719503567213774 0.37507752040228537 -0.13294208347620162 0.04872962234903272 0.86194283411840156 0.0065474603977351614 -0.1192074300336361 0.78472344447125231 0.62427746456371647 0.38631849824752074 0.15260590480556777 -0.7620916877359859 0.72237128409415785 0.092497659371282279 0.81455540022080342 -0.34858969302932397 0.57847883532400923 0.60663391957342694
leaf_weight=7211 25325 35692 13115 45842 17620 15954 11819 11945 13643 9174 20234 17594 6116 17737 25069 13597 10265 15509 30976 4941 5255 9169 9535 25341 5950 13561 6946 23588 4054 6750
leaf_count=7211 25325 35692 13115 45842 17620 15954 11819 11945 13643 9174 20234 17594 6116 17737 25069 13597 10265 15509 30976 4941 5255 9169 9535 25341 5950 13561 6946 23588 4054 6750
internal_value=-0.00010008 -0.289407 0.505004 -0.568716 -0.0699277 0.682119 0.332208 -0.462018 0.58532 -0.000978022 -0.733201 0.247688 0.814391 0.453468 -0.19472 -0.0401626 0.777525 -0.0618782 -0.0883094 0.655795 0.502892 0.296812 0.0656731 -0.787691 0.626712 0.0390895 0.734329 -0.379635 0.466847 0.528346
internal_weight=479527 304894 174633 134161 170733 86239 88394 81375 49797 109972 52786 52088 36442 36306 60761 69256 30326 55659 40150 26845 22952 34494 40716 32552 21904 31181 20061 35533 17697 18569
internal_count=479527 304894 174633 134161 170733 86239 88394 81375 49797 109972 52786 52088 36442 36306 60761 69256 30326 55659 40150 26845 22952 34494 40716 32552 21904 31181 20061 35533 17697 18569
is_linear=0
shrinkage=0.05


Tree=20
num_leaves=31
num_cat=0
split_feature=2 2 2 2 2 10 2 2 2 10 2 10 10 4 2 2 2 2 2 10 4 4 4 2 4 4 4 8 9 7
split_gain=2.54112e+07 6.13718e+06 2.52926e+06 679907 629921 498080 246832 152337 130741 102563 91119.8 76411 69189.3 63971.9 60529.3 56387.8 52016.5 42081 40655.9 39261.6 32423.2 31756.7 31715.9 31254.8 27421 26624.9 26324.7 25547.6 24321.5 22443.1
threshold=70.02500000000002 39.295000000000009 93.595000000000013 53.945000000000007 20.905000000000005 0.0090583812850289717 82.555000000000021 113.79500000000002 113.79500000000002 0.032888426034942041 32.025000000000013 0.01911314984435496 0.022156982283324449 81.045000000000016 11.000021305000002 44.675000000000004 76.115000000000023 63.845000000000006 100.53500000000001 0.0086128935168030638 88.035000000000011 80.725000000000009 81.045000000000016 63.345000000000006 82.25500000000001 82.035000000000011 79.395000000000024 1.0000000180025095e-35 1.5000000000000002 53.585000000000008
decision_type=2 2 2 2 2 2 2 2 2 2 2 2 2 2 2 2 2 2 2 2 2 2 2 2 2 2 2 2 2 2
left_child=1 4 6 15 14 7 16 18 11 13 -6 21 25 17 -1 -3 -2 29 -4 -9 -10 28 -20 -15 -13 -8 -18 -16 -7 -5
right_child=2 3 5 9 10 8 12 19 20 -11 -12 24 -14 23 27 -17 26 -19 22 -21 -22 -23 -24 -25 -26 -27 -28 -29 -30 -31
leaf_value=-0.78692203842956554 0.099530923969662177 -0.30698063965331435 0.57075167629567436 -0.022902164569453928 -0.52186440555397506 0.46769385202570118 0.35128918540899701 0.87991961871605062 0.64222482696555028 -0.11316122232576797 -0.40765202807886214 0.3907916030073198 0.23889886404337105 -0.032032676089395799 -0.74737363797523193 -0.20424055555361612 0.17964700539964767 0.0464182557776599 0.66203223918637533 0.69877406325479741 0.88962783322787464 0.63588057187853053 0.80177712806201118 0.11062627672766215 0.52284402590237933 0.46948422562433401 0.30710161850780249 -0.64033166079981318 0.58694334537620474 -0.089624747692997442
leaf_weight=17246 20094 21939 8788 31651 44129 12322 19267 14862 8183 29494 28900 19057 13007 5194 7561 34133 16469 14623 15376 3745 1580 6687 5517 14721 4953 6330 5373 21213 6548 20942
leaf_count=17246 20094 21939 8788 31651 44129 12322 19267 14862 8183 29494 28900 19057 13007 5194 7561 34133 16469 14623 15376 3745 1580 6687 5517 14721 4953 6330 5373 21213 6548 20942
internal_value=0.000426314 -0.291763 0.453477 -0.10136 -0.567968 0.612064 0.241571 0.731297 0.515022 -0.0325698 -0.476667 0.482081 0.332802 -0.00528942 -0.712853 -0.244439 0.157589 -0.0286096 0.660981 0.843461 0.682263 0.542253 0.698933 0.0734196 0.418033 0.380518 0.211 -0.668459 0.509074 -0.0494704
internal_weight=479904 291746 188158 172697 119049 107618 80540 48288 59330 116625 73029 49567 38604 87131 46020 56072 41936 67216 29681 18607 9763 25557 20893 19915 24010 25597 21842 28774 18870 52593
internal_count=479904 291746 188158 172697 119049 107618 80540 48288 59330 116625 73029 49567 38604 87131 46020 56072 41936 67216 29681 18607 9763 25557 20893 19915 24010 25597 21842 28774 18870 52593
is_linear=0
shrinkage=0.05


Tree=21
num_leaves=31
num_cat=0
split_feature=2 2 2 2 2 2 10 2 10 2 10 10 4 2 4 4 2 2 4 10 9 2 10 9 8 1 4 2 4 10
split_gain=2.29336e+07 5.53935e+06 2.28578e+06 641509 551683 507774 246311 159950 140105 94989 94713.6 64640.3 58011.8 51137.4 42885.7 42505.9 39215.7 38846.3 37366.5 33676.7 30469.2 29943.6 29129.3 27502.6 25638.2 25105.7 22449.2 19700.2 19483.6 18983.4
threshold=70.02500000000002 38.845000000000006 91.425000000000026 53.645000000000003 19.140805500000003 111.89500000000002 0.010137361269884728 78.655000000000015 0.0086128935168030638 30.085000000000004 0.033165662578110593 0.011752952968628645 81.045000000000016 43.975000000000001 82.035000000000011 80.725000000000009 63.845000000000006 8.7850000000000019 80.725000000000009 0.028359408291675752 1.5000000000000002 63.345000000000006 0.026769580843316005 1.5000000000000002 1.0000000180025095e-35 58.500000000000007 82.035000000000011 63.845000000000006 74.145000000000024 0.041994751105816776
decision_type=2 2 2 2 2 2 2 2 2 2 2 2 2 2 2 2 2 2 2 2 2 2 2 2 2 2 2 2 2 2
left_child=1 4 7 13 17 6 18 22 20 -6 12 26 16 -3 19 -10 25 -1 23 -8 28 -14 -2 -4 -19 -5 -9 -12 -7 -15
right_child=2 3 5 10 9 8 14 11 15 -11 27 -13 21 29 -16 -17 -18 24 -20 -21 -22 -23 -24 -25 -26 -27 -28 -29 -30 -31
leaf_value=-0.77319153498813442 0.15528642258466197 -0.3015445831625449 0.52024801089980033 -0.019140102405260449 -0.51799794260263654 0.7263803988585078 0.41338853089996341 0.30661003771040718 0.58684649526697663 -0.40654848285140344 -0.12818113551005592 0.21516013789791477 -0.031737796314462642 -0.17830042885662131 0.50760092765086073 0.75584125269891211 0.044097344053189963 -0.73836367580655282 0.66613338265373889 0.29523954783804557 0.91714670725377645 0.10509496418622798 0.049705911718498808 0.62283282600682155 -0.63430920660509194 -0.08838586889168544 0.43071318806892728 -0.021128523828024104 0.86283075022771749 -0.25794889256409359
leaf_weight=10624 18155 20174 18526 31128 39053 6987 23168 14700 14452 37455 24626 24235 5489 25141 8792 5011 14623 8073 10650 8154 6003 14721 10205 10093 22195 22588 4845 5206 4182 10650
leaf_count=10624 18155 20174 18526 31128 39053 6987 23168 14700 14452 37455 24626 24235 5489 25141 8792 5011 14623 8073 10650 8154 6003 14721 10205 10093 22195 22588 4845 5206 4182 10650
internal_value=0.000404998 -0.277175 0.430803 -0.0983921 -0.542677 0.568223 0.497163 0.209798 0.722201 -0.463437 -0.032447 0.269721 -0.0064882 -0.237884 0.410021 0.630356 -0.0284964 -0.690934 0.58618 0.382631 0.826299 0.0679314 0.117295 0.556426 -0.662062 -0.0482585 0.337374 -0.109499 0.777471 -0.202001
internal_weight=479904 291746 188158 174346 117400 116018 79383 72140 36635 76508 118381 43780 88549 55965 40114 19463 68339 40892 39269 31322 17172 20210 28360 28619 30268 53716 19545 29832 11169 35791
internal_count=479904 291746 188158 174346 117400 116018 79383 72140 36635 76508 118381 43780 88549 55965 40114 19463 68339 40892 39269 31322 17172 20210 28360 28619 30268 53716 19545 29832 11169 35791
is_linear=0
shrinkage=0.05


Tree=22
num_leaves=31
num_cat=0
split_feature=2 2 2 2 2 10 2 2 2 2 10 10 10 2 10 4 2 2 2 4 9 4 10 10 4 9 4 2 2 4
split_gain=2.06976e+07 4.99927e+06 2.0757e+06 580075 497894 361791 282849 101424 86661.1 86514.9 83086.5 80861.9 55199.7 54896.1 50225.6 42093.6 39320 35642.7 27993.9 27420.8 24927 24911.5 24665.4 23937.1 20907.8 20035.1 20014.3 19057.3 17710 17552.1
threshold=70.02500000000002 38.845000000000006 95.925000000000026 54.445000000000007 19.140805500000003 0.0089778695688402851 82.985000000000014 116.44500000000001 29.065000000000001 113.79500000000002 0.015662933761086354 0.011132758174084391 0.01911314984435496 46.715000000000011 0.013193482475358068 83.135000000000005 104.12500000000001 11.000021305000002 61.152130000000007 88.035000000000011 1.5000000000000002 69.305000000000021 0.033165662578110593 0.0469924811938063 82.25500000000001 1.5000000000000002 83.135000000000005 35.125000000000007 60.215000000000011 82.035000000000011
decision_type=2 2 2 2 2 2 2 2 2 2 2 2 2 2 2 2 2 2 2 2 2 2 2 2 2 2 2 2 2 2
left_child=1 4 6 13 17 7 14 16 -6 12 18 25 21 -3 -2 23 -4 -1 -5 -11 -18 -7 29 -12 -14 -8 -20 -10 -17 -13
right_child=2 3 5 10 8 9 11 -9 27 19 15 22 24 -15 -16 28 20 -19 26 -21 -22 -23 -24 -25 -26 -27 -28 -29 -30 -31
leaf_value=-0.71104784010043631 0.20543537110551477 -0.26738821098192694 0.54886599507091383 -0.063801664620079343 -0.5000522017136606 0.46203361335690307 0.35736210655452472 0.81252639838624785 -0.41588676807586045 0.57983572922309723 -0.05934489319131795 0.26038695181427218 0.36556103557975567 -0.17117132963737255 0.097397554880259501 -0.097239476749818587 0.63030221406050613 -0.61652178775157107 0.028333253526432314 0.80735438353228806 0.7372990357241167 0.56646864330219748 0.16270089571618335 -0.13155985789040467 0.49212776239251693 0.45806602045276357 0.12384876928740081 -0.34434689244921346 0.044147717833559516 0.37104557029213331
leaf_weight=17246 19249 30389 9774 6773 33819 14325 13947 10319 28973 8183 44094 15467 16074 28944 24386 2736 15482 23646 27415 1580 8395 9495 5077 15512 4094 7647 6856 13716 11627 4664
leaf_count=17246 19249 30389 9774 6773 33819 14325 13947 10319 28973 8183 44094 15467 16074 28944 24386 2736 15482 23646 27415 1580 8395 9495 5077 15512 4094 7647 6856 13716 11627 4664
internal_value=0.000384748 -0.263316 0.409263 -0.0934725 -0.515544 0.569023 0.236635 0.675393 -0.440265 0.482009 -0.0279666 0.322015 0.452124 -0.220451 0.145057 -0.059623 0.633342 -0.656388 0.0290843 0.616656 0.667922 0.503663 0.261187 -0.0781383 0.391253 0.393024 0.0474414 -0.392901 0.0172149 0.286025
internal_weight=479904 291746 188158 174346 117400 97721 90437 43970 76508 53751 115013 46802 43988 59333 43635 73969 33651 40892 41044 9763 23877 23820 25208 59606 20168 21594 34271 42689 14363 20131
internal_count=479904 291746 188158 174346 117400 97721 90437 43970 76508 53751 115013 46802 43988 59333 43635 73969 33651 40892 41044 9763 23877 23820 25208 59606 20168 21594 34271 42689 14363 20131
is_linear=0
shrinkage=0.05


Tree=23
num_leaves=31
num_cat=0
split_feature=2 2 2 2 2 10 2 2 10 2 10 2 10 4 2 8 4 2 2 4 4 4 2 2 2 9 4 4 7 2
split_gain=1.8692e+07 5.17871e+06 1.27526e+06 654141 402657 287244 180092 109697 97588.2 90388.5 77089.4 65967.5 62668.7 44839.1 44474.1 44327.8 40809.6 35939.6 61391.4 35575.5 24471.4 24372.2 24330.8 22125.5 22048.1 20873.2 20149.3 19796.7 19572.8 19404.8
threshold=76.115000000000023 43.455000000000005 98.625000000000014 26.025000000000002 60.215000000000011 0.0087815587428327468 90.475000000000009 16.605000000000004 0.014808233700285738 36.995000000000012 0.02623983205991082 117.74500000000002 0.012138131984729928 80.435000000000016 51.955000000000005 1.0000000180025095e-35 80.725000000000009 63.845000000000006 63.775000000000013 75.625000000000014 81.045000000000016 79.395000000000024 110.24500000000002 7.6450000000000005 65.595000000000013 1.5000000000000002 82.25500000000001 82.035000000000011 53.585000000000008 117.74500000000002
decision_type=2 2 2 2 2 2 2 2 2 2 2 2 2 2 2 2 2 2 2 2 2 2 2 2 2 2 2 2 2 2
left_child=1 3 6 7 14 11 12 23 20 -5 16 19 27 17 -3 -8 22 18 -10 25 24 -14 -7 -1 -6 -4 -17 -2 -20 -18
right_child=2 4 5 9 8 10 15 -9 13 -11 -12 -13 21 -15 -16 26 29 -19 28 -21 -22 -23 -24 -25 -26 -27 -28 -29 -30 -31
leaf_value=-0.71953648435444761 0.25797339862828883 -0.19626523225946915 0.55979677503761704 -0.39921113326207225 0.0087886076362516646 0.44296135356724547 0.46037645765699375 -0.51045088671345407 0.043682078716705985 -0.28227396696515811 0.37250755355592829 0.81650977805902147 0.14385067013620728 0.042563663356942893 -0.11066238273852358 0.30957778146527182 0.58299278958433387 0.0062710071589600208 -0.081156819161006671 0.71142428085840015 0.13463967065352983 0.25551303584218182 0.53665383363696761 -0.62035146346645487 0.091598430090453029 0.66660553211193074 0.42146048756382942 0.3676487425687528 -0.16509175113124006 0.82756189060785756
leaf_weight=7231 16800 30654 13039 47474 18583 14975 10270 30545 8034 25349 12249 6076 20066 16476 30044 17543 8741 18321 18894 10337 9808 6460 12897 25279 14165 7046 5222 5449 10983 894
leaf_count=7231 16800 30654 13039 47474 18583 14975 10270 30545 8034 25349 12249 6076 20066 16476 30044 17543 8741 18321 18894 10337 9808 6460 12897 25279 14165 7046 5222 5449 10983 894
internal_value=0.00036551 -0.228717 0.425425 -0.46059 -0.0496651 0.559561 0.284003 -0.578488 0.00522183 -0.358506 0.481413 0.666097 0.22295 -0.0299756 -0.153894 0.374144 0.51698 -0.0512297 -0.0790176 0.636056 0.0653576 0.171044 0.486315 -0.642413 0.0446076 0.597266 0.335242 0.284834 -0.112012 0.605686
internal_weight=479904 311840 168064 135878 175962 86254 81810 63055 115264 72823 49756 36498 48775 72708 60698 33035 37507 56232 37911 30422 42556 26526 27872 32510 32748 20085 22765 22249 29877 9635
internal_count=479904 311840 168064 135878 175962 86254 81810 63055 115264 72823 49756 36498 48775 72708 60698 33035 37507 56232 37911 30422 42556 26526 27872 32510 32748 20085 22765 22249 29877 9635
is_linear=0
shrinkage=0.05


Tree=24
num_leaves=31
num_cat=0
split_feature=2 2 2 2 2 10 2 2 10 2 10 2 10 10 4 4 10 2 2 4 10 2 4 4 4 8 2 7 0 0
split_gain=1.68696e+07 4.67378e+06 1.15092e+06 591865 363398 259238 162533 100442 88073.4 73493.2 69843.6 60186.9 56558.5 41778.5 40872.6 40407.1 40339.6 32258.7 54611.8 26296.1 23602.6 23597 22085.4 21995.9 20350.5 19998.7 19898.4 18996.6 19458.4 22151.6
threshold=76.115000000000023 43.455000000000005 98.625000000000014 23.985000000000003 60.215000000000011 0.0087815587428327468 90.475000000000009 36.045000000000009 0.014808233700285738 15.455000000000002 0.026567481397469287 111.89500000000002 0.012138131984729928 0.020886637828252095 83.135000000000005 68.595000000000013 0.037907505680138447 63.845000000000006 63.775000000000013 75.985000000000014 0.0084455893053396718 49.411000000000008 81.045000000000016 79.395000000000024 86.75500000000001 1.0000000180025095e-35 65.595000000000013 20.315000000000001 40.500000000000007 43.500000000000007
decision_type=2 2 2 2 2 2 2 2 2 2 2 2 2 2 2 2 2 2 2 2 2 2 2 2 2 2 2 2 2 2
left_child=1 3 6 9 16 11 12 -5 22 25 15 24 -2 -8 17 -7 21 18 -10 20 -13 -3 26 -14 -4 -1 -6 -20 -29 -30
right_child=2 4 5 7 8 10 13 -9 14 -11 -12 19 23 -15 -16 -17 -18 -19 27 -21 -22 -23 -24 -25 -26 -27 -28 28 29 -31
leaf_value=-0.68712709567520447 0.27059227406881842 -0.17319660419820743 0.53166307543665092 -0.39207290674708761 0.0083491781842900733 0.44702608122682497 0.39286007689553087 -0.27515966382882179 0.040674223223753261 -0.50265740424646477 0.34645853889795658 0.69512003613645201 0.1366581384543448 0.2709520285883264 0.048416921080538404 0.55117951130242848 -0.20286000346861499 0.0065114765948946374 -0.00010102648622969035 0.76439263983296624 0.55560700259987694 -0.090688546171540541 0.12790768851331566 0.24273738808385598 0.67760399269631766 -0.59248332943550175 0.087018507714565554 -0.099019246559641297 -0.31918906656589757 -0.097072490917223864
leaf_weight=7537 22249 12695 12776 50893 18583 23112 22894 28748 8395 27186 11048 8767 20066 10141 13963 15596 20700 19156 3922 7383 4634 27303 9808 6460 2938 21514 14165 22774 2344 2154
leaf_count=7537 22249 12695 12776 50893 18583 23112 22894 28748 8395 27186 11048 8767 20066 10141 13963 15596 20700 19156 3922 7383 4634 27303 9808 6460 2938 21514 14165 22774 2344 2154
internal_value=0.000347235 -0.217282 0.404154 -0.437561 -0.0471818 0.531583 0.269802 -0.349871 0.00496073 -0.561744 0.457343 0.632792 0.211803 0.355437 -0.0284768 0.488991 -0.146199 -0.0467536 -0.0725271 0.688622 0.646877 -0.116876 0.0620897 0.162492 0.558949 -0.617038 0.0423772 -0.102992 -0.117789 -0.212822
internal_weight=479904 311840 168064 135878 175962 86254 81810 79641 115264 56237 49756 36498 48775 33035 72708 38708 60698 58745 39589 20784 13401 39998 42556 26526 15714 29051 32748 31194 27272 4498
internal_count=479904 311840 168064 135878 175962 86254 81810 79641 115264 56237 49756 36498 48775 33035 72708 38708 60698 58745 39589 20784 13401 39998 42556 26526 15714 29051 32748 31194 27272 4498
is_linear=0
shrinkage=0.05


Tree=25
num_leaves=31
num_cat=0
split_feature=2 2 2 2 2 2 10 2 10 10 2 4 10 10 4 9 4 2 4 10 9 10 8 7 2 4 10 10 2 7
split_gain=1.52133e+07 3.44787e+06 1.73595e+06 375493 372478 361287 169499 144973 120708 77619.2 60528.8 45688.7 44141.6 34232.8 32988.2 30419.3 29506.3 27773.4 27278 25921.6 23822.3 23089.4 22561.6 20196.4 19810.1 18834.7 17664.4 16838.8 16181.3 16498.7
threshold=67.75500000000001 38.845000000000006 91.425000000000026 53.095000000000006 19.140805500000003 110.24500000000002 0.010022550763328116 78.655000000000015 0.0086128935168030638 0.033422459888393714 29.440000000000001 82.835000000000022 0.011752952968628645 0.045454545445936648 79.865000000000023 1.5000000000000002 68.595000000000013 8.2550000000000008 81.355000000000004 0.027119256943146364 1.5000000000000002 0.028359408291675752 1.0000000180025095e-35 40.955000000000005 63.775000000000013 82.035000000000011 0.015662933761086354 0.02538071065506713 63.775000000000013 53.57500000000001
decision_type=2 2 2 2 2 2 2 2 2 2 2 2 2 2 2 2 2 2 2 2 2 2 2 2 2 2 2 2 2 2
left_child=1 4 7 13 17 6 14 19 15 11 -6 23 25 -3 20 -7 27 -1 21 -2 -4 -8 -19 -5 -13 -9 -25 -10 -28 -30
right_child=2 3 5 9 10 8 18 12 16 -11 -12 24 -14 -15 -16 -17 -18 22 -20 -21 -22 -23 -24 26 -26 -27 28 -29 29 -31
leaf_value=-0.64193716861240513 0.11715296604982472 -0.16947218087664706 0.40745942699328475 0.01257228094895948 -0.42491281052057461 0.62318166055575297 0.32588187170749439 0.24791945751345842 0.48770346990210522 -0.10743931799799358 -0.33582520210926287 -0.017742734064061943 0.17510446019595513 -0.25516293875684282 0.55306408402060014 0.75564665167755518 0.56756734925255692 -0.61242672306795631 0.39852270185996774 0.02985975605485899 0.51131467679280651 0.22722995533567839 -0.51715180638874936 -0.014428016525884669 0.097909636166286812 0.36173029595801814 -0.017204032172875975 0.36484983343423855 -0.21629839627985575 -0.082251159131237372
leaf_weight=8949 23399 37199 15803 19348 35650 12490 22092 14668 10395 28287 40987 5420 24273 16973 9640 6637 9786 8441 9011 13360 8487 8108 23549 21230 11686 4833 8012 3812 2714 14886
leaf_count=8949 23399 37199 15803 19348 35650 12490 22092 14668 10395 28287 40987 5420 24273 16973 9640 6637 9786 8441 9011 13360 8487 8108 23549 21230 11686 4833 8012 3812 2714 14886
internal_value=-0.000649929 -0.235215 0.337062 -0.0883142 -0.442311 0.460657 0.392981 0.158633 0.575451 -0.0358787 -0.377267 -0.011577 0.220109 -0.196321 0.474805 0.669147 0.500759 -0.564073 0.322176 0.0854264 0.443747 0.299396 -0.542291 -0.0304022 0.0612654 0.276126 -0.0481527 0.45474 -0.0761074 -0.102922
internal_weight=480125 283331 196794 165755 117576 116261 73141 80533 43120 111583 76637 83296 43774 54172 33930 19127 23993 40939 39211 36759 24290 30200 31990 66190 17106 19501 46842 14207 25612 17600
internal_count=480125 283331 196794 165755 117576 116261 73141 80533 43120 111583 76637 83296 43774 54172 33930 19127 23993 40939 39211 36759 24290 30200 31990 66190 17106 19501 46842 14207 25612 17600
is_linear=0
shrinkage=0.05


Tree=26
num_leaves=31
num_cat=0
split_feature=2 2 2 2 2 2 10 2 10 10 2 4 10 2 4 9 8 10 4 9 10 9 2 2 7 2 2 10 2 6
split_gain=1.37336e+07 3.04117e+06 1.64915e+06 354646 340926 312973 151246 133167 112288 71971.6 46028.7 42768.2 39095.4 36054.6 33577 27391.3 25528.7 24095.6 23230.3 23139.7 21817.1 21016.4 21012.1 19567.2 18592.4 18255.1 18012.2 16102.8 15636.2 15869.3
threshold=67.00500000000001 37.855000000000011 91.015000000000015 53.095000000000006 106.88500000000001 19.140805500000003 0.0086128935168030638 78.655000000000015 0.010137361269884728 0.016985859300621665 28.645000000000003 81.045000000000016 0.023352209778344034 44.675000000000004 82.835000000000022 1.5000000000000002 1.0000000180025095e-35 0.025709694706422589 79.865000000000023 1.5000000000000002 0.013776951224183237 1.5000000000000002 63.775000000000013 8.7850000000000019 53.585000000000008 117.74500000000002 63.775000000000013 0.033422459888393714 63.845000000000006 1.5000000000000002
decision_type=2 2 2 2 2 2 2 2 2 2 2 2 2 2 2 2 2 2 2 2 2 2 2 2 2 2 2 2 2 2
left_child=1 5 7 13 8 16 15 20 21 14 -7 17 18 -3 24 25 -1 -8 -9 -10 -2 -4 -16 -18 -5 -6 -26 -11 29 -24
right_child=2 3 4 9 6 10 11 12 19 27 -12 -13 -14 -15 22 -17 23 -19 -20 -21 -22 -23 28 -25 26 -27 -28 -29 -30 -31
leaf_value=-0.60201076812108534 0.12296515848162243 -0.23243252123135166 0.39566304091924687 0.0089469201446515621 0.54950755683992336 -0.4080092447280943 0.45189088192908422 0.21181254785786227 0.26230979597616039 -0.049231895938311336 -0.32818826594272227 0.55511032842782149 0.13632635005569912 -0.15308544044188224 -0.022635031815979201 0.6960187694005957 -0.57973861912310054 0.3393945566295018 0.31361038919813389 0.34968586299174254 0.047863055352757727 0.48628049034566367 0.076871839213997942 -0.48826731641037385 0.012795508829205169 0.67349150892499043 -0.091532617022510171 -0.10552684527918686 -0.039874193908599698 0.22845792631468731
leaf_weight=10756 16343 26917 17728 26850 11252 32234 18685 20823 21997 23489 41075 8145 13661 30583 3659 8085 7930 6387 7668 11559 23684 10012 3524 22253 6254 4033 12223 27663 1268 3385
leaf_count=10756 16343 26917 17728 26850 11252 32234 18685 20823 21997 23489 41075 8145 13661 30583 3659 8085 7930 6387 7668 11559 23684 10012 3524 22253 6254 4033 12223 27663 1268 3385
internal_value=-0.000617434 -0.226633 0.315778 -0.0898683 0.435637 -0.425128 0.524135 0.143843 0.353938 -0.0365906 -0.363286 0.45557 0.205867 -0.19023 0.00196437 0.62159 -0.53587 0.423233 0.23921 0.292408 0.0785272 0.428369 0.0769554 -0.5123 -0.0176177 0.582221 -0.0562202 -0.0796762 0.12152 0.15114
internal_weight=480125 280063 200062 165815 117883 114248 56587 82179 61296 108315 73309 33217 42152 57500 57163 23370 40939 25072 28491 33556 40027 27740 11836 30183 45327 15285 18477 51152 8177 6909
internal_count=480125 280063 200062 165815 117883 114248 56587 82179 61296 108315 73309 33217 42152 57500 57163 23370 40939 25072 28491 33556 40027 27740 11836 30183 45327 15285 18477 51152 8177 6909
is_linear=0
shrinkage=0.05


Tree=27
num_leaves=31
num_cat=0
split_feature=2 2 2 2 2 2 10 2 10 10 2 10 2 10 11 2 2 9 1 2 9 8 9 10 5 10 9 9 2 6
split_gain=1.23945e+07 2.74466e+06 1.48876e+06 320904 317844 282458 136500 112439 103739 54069.7 52092 44367.1 41974.1 34534.1 27282.9 24908.9 23491.2 20984.9 20192.3 19501.5 19105.2 18745.8 18350.8 17446.7 15152.2 14293.2 14246.4 13841.8 13663.1 13613.6
threshold=67.00500000000001 37.855000000000011 90.475000000000009 56.405000000000008 106.88500000000001 19.140805500000003 0.0086128935168030638 76.115000000000023 0.010137361269884728 0.031152647967799232 47.975000000000001 0.024191109852714988 26.535000000000004 0.025709694706422589 14.625000000000002 117.74500000000002 7.6450000000000005 1.5000000000000002 58.500000000000007 118.63500000000001 1.5000000000000002 1.0000000180025095e-35 1.5000000000000002 0.045454545445936648 4.5000000000000009 0.037907505680138447 1.5000000000000002 1.5000000000000002 33.565000000000005 1.5000000000000002
decision_type=2 2 2 2 2 2 2 2 2 2 2 2 2 2 2 2 2 2 2 2 2 2 2 2 2 2 2 2 2 2
left_child=1 5 7 10 8 16 15 -2 20 14 23 -9 -7 19 18 22 -1 -10 -5 27 -4 -18 -6 -3 -17 -12 29 -8 -14 -16
right_child=2 3 4 9 6 12 13 11 17 -11 25 -13 28 -15 26 24 21 -19 -20 -21 -22 -23 -24 -25 -26 -27 -28 -29 -30 -31
leaf_value=-0.59087184637570633 0.060763056282584653 -0.1799544995987559 0.37492097108982808 0.0083260497047270062 0.52203218185646694 -0.39951293994325332 0.42105047248108979 0.21352722560912274 0.24859230518881006 -0.072673012098339637 -0.093852979137825199 0.11022777404495297 -0.33799911865115573 0.34234458754161218 -0.027379837103719426 0.72514274723998495 -0.55372047647624889 0.33047139167944106 -0.069354147664853372 0.6110533021513409 0.46057345485596646 -0.46918170263143222 0.63066901271990461 -0.24925001760924059 0.5502900315518694 -0.16591911492089534 0.098816572167580163 0.50274576058843634 -0.2827847997575334 0.064770634370604249
leaf_weight=7228 31850 24318 18077 19599 11252 23904 15379 33628 22780 38147 20075 15045 32230 8009 8254 4464 8915 11920 14596 2007 10175 24796 5939 14499 1715 10468 8068 7822 17175 7791
leaf_count=7228 31850 24318 18077 19599 11252 23904 15379 33628 22780 38147 20075 15045 32230 8009 8254 4464 8915 11920 14596 2007 10175 24796 5939 14499 1715 10468 8068 7822 17175 7791
internal_value=-0.000586561 -0.215302 0.299989 -0.0853748 0.411934 -0.403872 0.497928 0.133802 0.334635 -0.0263904 -0.167401 0.181597 -0.345121 0.432791 0.00388928 0.590511 -0.509076 0.276719 -0.0248314 0.461528 0.405769 -0.491538 0.559563 -0.205838 0.676612 -0.118552 0.0446185 0.448593 -0.318805 0.0173658
internal_weight=480125 280063 200062 165815 119539 114248 56587 80523 62952 96455 69360 48673 73309 33217 58308 23370 40939 34700 34195 25208 28252 33711 17191 38817 6179 30543 24113 23201 49405 16045
internal_count=480125 280063 200062 165815 119539 114248 56587 80523 62952 96455 69360 48673 73309 33217 58308 23370 40939 34700 34195 25208 28252 33711 17191 38817 6179 30543 24113 23201 49405 16045
is_linear=0
shrinkage=0.05


Tree=28
num_leaves=31
num_cat=0
split_feature=10 10 10 8 10 8 8 10 8 8 10 10 4 10 8 10 10 8 10 8 9 10 10 4 10 4 10 4 9 9
split_gain=5.05791e+06 587347 460662 646779 645742 1.06761e+06 368087 362363 177159 161737 150884 116162 115660 93179.6 77953.2 75827.9 71272.2 41820.4 40143.5 39299.2 28544.4 27961.5 24819.5 22444.3 22171.8 20662.7 19979.9 18908.3 18469.9 18255.6
threshold=0.039890964867519897 0.059701492510581426 0.02935995302048347 1.5000000000000002 0.014808233700285738 1.0000000180025095e-35 1.5000000000000002 0.010137361269884728 2.5000000000000004 2.5000000000000004 0.01911314984435496 0.1118047153505925 81.045000000000016 0.019301293183849457 2.5000000000000004 0.011752952968628645 0.023352209778344034 1.5000000000000002 0.0087286693302269912 1.5000000000000002 1.5000000000000002 0.046558547646443203 0.016985859300621665 82.835000000000022 0.033165662578110593 66.385000000000005 0.081749441337041803 75.235000000000014 1.5000000000000002 1.5000000000000002
decision_type=2 2 2 2 2 2 2 2 2 2 2 2 2 2 2 2 2 2 2 2 2 2 2 2 2 2 2 2 2 2
left_child=2 8 3 4 5 12 -4 18 19 -8 22 17 20 23 16 29 -12 -3 27 -2 -1 -10 -5 -6 -11 -16 -19 -7 -14 -9
right_child=1 11 6 10 13 7 9 15 21 24 14 -13 28 -15 25 -17 -18 26 -20 -21 -22 -23 -24 -25 -26 -27 -28 -29 -30 -31
leaf_value=0.0065119685408802641 -0.35636790551311814 -0.44061837949681371 -0.29841413472737938 0.6049038008392591 -0.046096594411554948 0.47098042767752224 -0.054921884515686796 0.22731251525517482 -0.0014110733682563296 0.19857608856421718 0.25853112075102086 -0.45432120717590591 0.10506963559613065 -0.1668647091074584 0.27808864869271244 0.11324354696796457 0.096644364449831988 -0.26862445722556466 0.39763727416449335 -0.21406318855918235 0.061284955777196018 -0.10634520409157039 0.40207871705584486 0.056941795719812241 0.089654801034128803 0.40208839383280764 -0.34365498985773724 0.62424877463493944 0.18405901794723445 0.33950773562430819
leaf_weight=70839 7422 6304 10865 1765 25294 5343 26223 10009 8806 8193 14326 27072 21428 17970 8618 15989 12940 20525 18349 14009 35811 22748 10371 6681 10872 5506 15629 3228 11305 5685
leaf_count=70839 7422 6304 10865 1765 25294 5343 26223 10009 8806 8193 14326 27072 21428 17970 8618 15989 12940 20525 18349 14009 35811 22748 10371 6681 10872 5506 15629 3228 11305 5685
internal_value=-0.000557233 -0.277818 0.0944306 0.118923 0.0848937 0.125422 -0.0370564 0.304484 -0.152408 0.0256457 0.276546 -0.373386 0.0501366 -0.0757653 0.231089 0.189879 0.181702 -0.321781 0.439367 -0.263346 0.0249037 -0.0770605 0.431577 -0.0245673 0.136463 0.326428 -0.301059 0.528704 0.13235 0.267954
internal_weight=480125 122515 357610 301457 247931 197986 56153 58603 52985 45288 53526 69530 139383 49945 41390 31683 27266 42458 26920 21431 106650 31554 12136 31975 19065 14124 36154 8571 32733 15694
internal_count=480125 122515 357610 301457 247931 197986 56153 58603 52985 45288 53526 69530 139383 49945 41390 31683 27266 42458 26920 21431 106650 31554 12136 31975 19065 14124 36154 8571 32733 15694
is_linear=0
shrinkage=0.05


Tree=29
num_leaves=31
num_cat=0
split_feature=10 10 10 8 10 8 10 8 8 8 10 10 4 10 8 10 10 8 10 8 9 10 10 11 4 10 9 9 10 10
split_gain=4.56573e+06 557204 388280 583718 582782 963514 327032 324748 151918 148302 136501 116112 104383 84223 73545.4 69375.6 59960.4 39899 36757.5 35857.6 25761.3 25424.3 23839.7 19047.5 18648.1 18318.1 17712.4 16669.1 15482.1 15451
threshold=0.039047247162721725 0.05732575371193388 0.02935995302048347 1.5000000000000002 0.014808233700285738 1.0000000180025095e-35 0.010137361269884728 1.5000000000000002 2.5000000000000004 2.5000000000000004 0.019301293183849457 0.10149708845090107 81.045000000000016 0.01816365467462943 2.5000000000000004 0.012138131984729928 0.023352209778344034 1.5000000000000002 0.0086128935168030638 1.5000000000000002 1.5000000000000002 0.046558547646443203 0.017527715731802614 18.45000000000001 66.385000000000005 0.023152167695236332 1.5000000000000002 1.5000000000000002 0.033165662578110593 0.081749441337041803
decision_type=2 2 2 2 2 2 2 2 2 2 2 2 2 2 2 2 2 2 2 2 2 2 2 2 2 2 2 2 2 2
left_child=2 8 3 4 5 12 18 -4 19 -9 22 17 20 23 16 26 -12 -3 -7 -2 -1 -10 -5 -6 -16 -15 -8 -14 -11 -19
right_child=1 11 7 10 13 6 15 9 21 28 14 -13 27 25 24 -17 -18 29 -20 -21 -22 -23 -24 -25 -26 -27 -28 -29 -30 -31
leaf_value=0.006186370986213152 -0.33101399211603599 -0.41218084323663007 -0.28288516092875554 0.49134770971219927 -0.046700088816485949 0.52513307114955488 0.20674165175682579 -0.049899083462358287 -0.00028270420065507133 0.18864728506004308 0.24205638826303022 -0.42101147054081062 0.099816150719096663 -0.10613006807596624 0.2641842188094255 0.094061727001314085 0.091812149020446474 -0.24999901411682535 0.38571373891415944 -0.19246336860236823 0.058220707604339908 -0.096822516647948595 0.35116078428994307 0.038282324020428089 0.38198397547715168 -0.19868069310164035 0.30922021746096812 0.17485606569394369 0.095156653905545688 -0.32052982903686827
leaf_weight=70839 7173 6079 10462 4923 17502 6118 11660 25471 10041 8193 13641 31955 21428 12549 8618 13418 12940 23393 20802 13382 35811 21259 7898 10579 5506 9315 6605 11305 9637 11623
leaf_count=70839 7173 6079 10462 4923 17502 6118 11660 25471 10041 8193 13641 31955 21428 12549 8618 13418 12940 23393 20802 13382 35811 21259 7898 10579 5506 9315 6605 11305 9637 11623
internal_value=-0.000529371 -0.260549 0.0909007 0.112977 0.0806491 0.119151 0.28926 -0.0328834 -0.135206 0.0275197 0.262718 -0.349525 0.0476298 -0.071977 0.217906 0.180385 0.168915 -0.293938 0.417399 -0.240813 0.0236585 -0.0658527 0.40499 -0.0146845 0.310106 -0.145561 0.2438 0.125733 0.138116 -0.273411
internal_weight=480125 124905 355220 301457 247931 197986 58603 53763 51855 43301 53526 73050 139383 49945 40705 31683 26581 41095 26920 20555 106650 31300 12821 28081 14124 21864 18265 32733 17830 35016
internal_count=480125 124905 355220 301457 247931 197986 58603 53763 51855 43301 53526 73050 139383 49945 40705 31683 26581 41095 26920 20555 106650 31300 12821 28081 14124 21864 18265 32733 17830 35016
is_linear=0
shrinkage=0.05


Tree=30
num_leaves=31
num_cat=0
split_feature=2 2 2 2 10 2 10 8 2 4 1 2 10 2 2 2 10 4 3 4 2 2 7 2 8 9 4 2 8 5
split_gain=9.82264e+06 2.60382e+06 772882 340241 247918 208757 135850 67415.7 54112.7 47966.3 41537.2 40877.3 36919.9 36213.7 33818.9 30598.2 27677.7 22558.5 21280.9 19571 20305.9 31307.6 20558.5 18790.6 18294.6 17041.6 15883 15815.2 15456.3 15445.9
threshold=73.925000000000026 43.015000000000008 98.185000000000016 23.985000000000003 0.0087286693302269912 60.215000000000011 0.011617775233902295 1.0000000180025095e-35 33.995000000000012 80.185000000000016 58.500000000000007 88.815000000000012 0.027337342804673866 117.74500000000002 14.375000000000002 85.965000000000018 0.030004500747134132 66.715000000000018 7.5000000000000009 81.045000000000016 64.195000000000007 63.775000000000013 53.895000000000003 49.865000000000002 1.0000000180025095e-35 1.5000000000000002 79.865000000000023 116.44500000000001 1.0000000180025095e-35 2.5000000000000004
decision_type=2 2 2 2 2 2 2 2 2 2 2 2 2 2 2 2 2 2 2 2 2 2 2 2 2 2 2 2 2 2
left_child=1 3 6 7 13 23 11 -1 24 12 16 -2 18 17 -9 26 -7 -4 -6 20 21 -12 -23 -3 -5 -13 -8 -11 -15 -24
right_child=2 5 4 8 9 10 15 14 -10 27 19 25 -14 28 -16 -17 -18 -19 -20 -21 -22 22 29 -25 -26 -27 -28 -29 -30 -31
leaf_value=-0.52097926184891652 0.20349216991270522 -0.14692404392176059 0.44282730541360593 -0.36166331821564679 0.30693710799167651 0.052565012731042561 0.082761572503822226 -0.44537284887449369 -0.22253943163403817 0.39705299797104088 0.03349671569307159 0.27268922371727961 0.20349974747200911 0.70012692827124567 -0.35494049934097727 0.18619488943498486 -0.0163151048122658 0.53046637105298089 0.40421866131847217 0.02512446278880839 0.00090565780623212363 -0.067130816844399074 -0.087764071070866811 -0.091157863249966803 -0.28668264662653503 0.36304760059766988 0.17011854852465813 0.5710050432947873 0.54065212544307995 -0.23493000889254564
leaf_weight=14749 17388 25624 16431 10981 24611 39573 21898 19158 35675 11694 4838 14368 7157 2872 22457 18335 23096 13275 7286 10272 11583 11414 3032 36799 31390 8194 6825 1471 3226 4328
leaf_count=14749 17388 25624 16431 10981 24611 39573 21898 19158 35675 11694 4838 14368 7157 2872 22457 18335 23096 13275 7286 10272 11583 11414 3032 36799 31390 8194 6825 1471 3226 4328
internal_value=0.000414228 -0.170939 0.298976 -0.335516 0.403436 -0.0412434 0.193297 -0.429126 -0.267912 0.333953 0.000784739 0.261105 0.30613 0.504774 -0.396572 0.135732 0.02718 0.481991 0.329158 -0.0355969 -0.053319 -0.0799192 -0.109146 -0.114049 -0.306115 0.305505 0.103519 0.41649 0.615761 -0.174304
internal_weight=480000 304969 175031 134410 88023 170559 87008 56364 78046 52219 108136 39950 39054 35804 41615 47058 62669 29706 31897 45467 35195 23612 18774 62423 42371 22562 28723 13165 6098 7360
internal_count=480000 304969 175031 134410 88023 170559 87008 56364 78046 52219 108136 39950 39054 35804 41615 47058 62669 29706 31897 45467 35195 23612 18774 62423 42371 22562 28723 13165 6098 7360
is_linear=0
shrinkage=0.05


Tree=31
num_leaves=31
num_cat=0
split_feature=2 2 2 2 10 2 10 8 2 10 4 2 2 2 4 10 4 4 2 7 2 2 8 10 9 2 8 2 4 4
split_gain=8.86853e+06 2.45655e+06 605558 316792 222357 194446 107610 60842.6 52109.2 44938.1 42360 31475 30521.6 28579.3 26914.5 25507.4 24380.6 19984 19401.5 20554.6 27148 17017.7 16510.9 16500.1 15405.7 15041.4 13949.3 13723.2 13023.1 11902.8
threshold=76.115000000000023 43.455000000000005 98.625000000000014 23.985000000000003 0.0087286693302269912 60.215000000000011 0.011443611639977917 1.0000000180025095e-35 33.995000000000012 0.031152647967799232 69.305000000000021 117.74500000000002 14.375000000000002 90.475000000000009 80.725000000000009 0.01816365467462943 79.865000000000023 66.715000000000018 66.055000000000021 53.585000000000008 63.775000000000013 110.24500000000002 1.0000000180025095e-35 0.037907505680138447 1.5000000000000002 90.475000000000009 1.0000000180025095e-35 11.000021305000002 79.865000000000023 82.035000000000011
decision_type=2 2 2 2 2 2 2 2 2 2 2 2 2 2 2 2 2 2 2 2 2 2 2 2 2 2 2 2 2 2
left_child=1 3 6 7 11 23 13 27 22 14 15 17 -9 29 18 -6 25 -4 19 -7 -21 -12 -5 -3 -15 -8 -13 -1 -11 -2
right_child=2 5 4 8 10 9 16 12 -10 28 21 26 -14 24 -16 -17 -18 -19 -20 20 -22 -23 -24 -25 -26 -27 -28 -29 -30 -31
